{"learner":{"attributes":{"best_iteration":"42","best_score":"1.080536834010091"},"feature_names":["flow_count","unique_dst_count","unique_dst_port_count","top_dst_port_ratio","dst_port_entropy","proto_entropy","service_entropy","unique_service_count","empty_service_ratio","conn_state_entropy","failed_conn_ratio","s0_ratio","rej_ratio","rst_ratio","established_conn_ratio","syn_only_ratio","short_flow_ratio","small_response_ratio","zero_dst_bytes_ratio","avg_duration","median_duration","avg_src_bytes","avg_dst_bytes","avg_total_bytes","bytes_out_in_ratio","pkts_out_in_ratio","inter_flow_time_mean","inter_flow_time_std","tcp_flow_ratio","udp_flow_ratio","dst_port_well_known_ratio","dst_port_registered_ratio","dst_port_ephemeral_ratio"],"feature_types":[],"gradient_booster":{"model":{"cats":{"enc":[],"feature_segments":[],"sorted_idx":[]},"gbtree_model_param":{"num_parallel_tree":"1","num_trees":"292"},"iteration_indptr":[0,4,8,12,16,20,24,28,32,36,40,44,48,52,56,60,64,68,72,76,80,84,88,92,96,100,104,108,112,116,120,124,128,132,136,140,144,148,152,156,160,164,168,172,176,180,184,188,192,196,200,204,208,212,216,220,224,228,232,236,240,244,248,252,256,260,264,268,272,276,280,284,288,292],"tree_info":[0,1,2,3,0,1,2,3,0,1,2,3,0,1,2,3,0,1,2,3,0,1,2,3,0,1,2,3,0,1,2,3,0,1,2,3,0,1,2,3,0,1,2,3,0,1,2,3,0,1,2,3,0,1,2,3,0,1,2,3,0,1,2,3,0,1,2,3,0,1,2,3,0,1,2,3,0,1,2,3,0,1,2,3,0,1,2,3,0,1,2,3,0,1,2,3,0,1,2,3,0,1,2,3,0,1,2,3,0,1,2,3,0,1,2,3,0,1,2,3,0,1,2,3,0,1,2,3,0,1,2,3,0,1,2,3,0,1,2,3,0,1,2,3,0,1,2,3,0,1,2,3,0,1,2,3,0,1,2,3,0,1,2,3,0,1,2,3,0,1,2,3,0,1,2,3,0,1,2,3,0,1,2,3,0,1,2,3,0,1,2,3,0,1,2,3,0,1,2,3,0,1,2,3,0,1,2,3,0,1,2,3,0,1,2,3,0,1,2,3,0,1,2,3,0,1,2,3,0,1,2,3,0,1,2,3,0,1,2,3,0,1,2,3,0,1,2,3,0,1,2,3,0,1,2,3,0,1,2,3,0,1,2,3,0,1,2,3,0,1,2,3,0,1,2,3,0,1,2,3,0,1,2,3,0,1,2,3,0,1,2,3],"trees":[{"base_weights":[1.5782543E-2,4.2051372E-1,-2.292759E0,2.948589E-1,5.3826183E-1,-3.0245323E0,1.5740903E-1,3.2419792E-1,-4.978328E-2,5.483305E-1,-2.1350752E-3,1.640858E-2,-1.6094135E-1,2.4898771E-2,-3.53251E-2,1.7617866E-2,-2.9910991E-2,2.0828811E-2,2.8959677E-2],"categories":[],"categories_nodes":[],"categories_segments":[],"categories_sizes":[],"default_left":[0,0,0,0,0,0,0,0,0,0,0,0,0,0,0,0,0,0,0],"id":0,"left_children":[1,3,5,7,9,11,13,15,-1,17,-1,-1,-1,-1,-1,-1,-1,-1,-1],"loss_changes":[2.0135283E2,2.5536842E0,5.81147E1,3.764359E0,5.699253E-1,1.7213562E1,2.8066695E0,2.5388975E0,0E0,1.3245392E-1,0E0,0E0,0E0,0E0,0E0,0E0,0E0,0E0,0E0],"parents":[2147483647,0,0,1,1,2,2,3,3,4,4,5,5,6,6,7,7,9,9],"right_children":[2,4,6,8,10,12,14,16,-1,18,-1,-1,-1,-1,-1,-1,-1,-1,-1],"split_conditions":[3.53359E-1,1.414E-3,4.39497E-1,1.403E-3,1.33333E-1,7E0,7.64706E-1,1.021583E0,-4.978328E-2,6.336667E2,-2.1350752E-3,1.640858E-2,-1.6094135E-1,2.4898771E-2,-3.53251E-2,1.7617866E-2,-2.9910991E-2,2.0828811E-2,2.8959677E-2],"split_indices":[6,19,5,19,10,0,3,25,0,23,0,0,0,0,0,0,0,0,0],"split_type":[0,0,0,0,0,0,0,0,0,0,0,0,0,0,0,0,0,0,0],"sum_hessian":[2.1347116E2,1.8232413E2,3.1147038E1,8.989592E1,9.24282E1,2.3803427E1,7.343611E0,8.862978E1,1.2661397E0,9.090884E1,1.5193677E0,1.2661397E0,2.2537287E1,5.571015E0,1.7725956E0,8.660396E1,2.0258236E0,2.0005009E1,7.0903824E1],"tree_param":{"num_deleted":"0","num_feature":"33","num_nodes":"19","size_leaf_vector":"1"}},{"base_weights":[-1.8128712E-2,-4.030879E-1,2.8780305E0,-4.485273E-1,3.2612613E-1,1.7954497E-1,-2.2910535E-2,-5.152635E-1,-3.065879E-1,1.22639336E-1,-3.9653167E-1,-2.618593E-2,1.4793131E-3,-1.8462699E-2,2.9420594E-3,-2.4911042E-2,4.399512E-3],"categories":[],"categories_nodes":[],"categories_segments":[],"categories_sizes":[],"default_left":[0,0,0,0,0,0,0,0,0,0,0,0,0,0,0,0,0],"id":1,"left_children":[1,3,5,7,9,-1,-1,11,13,-1,15,-1,-1,-1,-1,-1,-1],"loss_changes":[2.1617247E2,5.815796E0,5.5750427E1,1.3717232E0,1.7287079E1,0E0,0E0,5.147438E-1,1.2609477E0,0E0,4.76632E-1,0E0,0E0,0E0,0E0,0E0,0E0],"parents":[2147483647,0,0,1,1,2,2,3,3,4,4,7,7,8,8,10,10],"right_children":[2,4,6,8,10,-1,-1,12,14,-1,16,-1,-1,-1,-1,-1,-1],"split_conditions":[5.2632E-2,3.53359E-1,1.9E1,4.8E1,4.39497E-1,1.7954497E-1,-2.2910535E-2,1.33333E-1,1.011364E0,1.22639336E-1,1.9849546E3,-2.618593E-2,1.4793131E-3,-1.8462699E-2,2.9420594E-3,-2.4911042E-2,4.399512E-3],"split_indices":[12,6,0,0,6,0,0,13,25,0,25,0,0,0,0,0,0],"split_type":[0,0,0,0,0,0,0,0,0,0,0,0,0,0,0,0,0],"sum_hessian":[1.9185295E2,1.7010352E2,2.174944E1,1.6048798E2,9.615541E0,1.7857435E1,3.892005E0,1.0737355E2,5.311442E1,1.8315318E0,7.78401E0,1.0577096E2,1.6025903E0,4.533041E1,7.78401E0,6.4103613E0,1.3736489E0],"tree_param":{"num_deleted":"0","num_feature":"33","num_nodes":"17","size_leaf_vector":"1"}},{"base_weights":[-2.5528396E-2,-1.8861113E-1,6.955603E-2,8.5127726E-2,-2.2903113E-2,-3.5149786E-1,9.570535E-2,1.0548013E-2,-2.2384597E-2],"categories":[],"categories_nodes":[],"categories_segments":[],"categories_sizes":[],"default_left":[0,0,0,0,0,0,0,0,0],"id":2,"left_children":[1,3,-1,5,-1,7,-1,-1,-1],"loss_changes":[5.309991E0,1.5490898E0,0E0,9.456484E0,0E0,6.2057686E-1,0E0,0E0,0E0],"parents":[2147483647,0,0,1,1,3,3,5,5],"right_children":[2,4,-1,6,-1,8,-1,-1,-1],"split_conditions":[4.39497E-1,1.538E-3,6.955603E-2,1.182E-3,-2.2903113E-2,4.5E1,9.570535E-2,1.0548013E-2,-2.2384597E-2],"split_indices":[6,19,0,20,0,0,0,0,0],"split_type":[0,0,0,0,0,0,0,0,0],"sum_hessian":[2.0848194E1,1.9473312E1,1.3748809E0,9.999134E0,9.474179E0,8.724244E0,1.2748896E0,1.0999047E0,7.6243396E0],"tree_param":{"num_deleted":"0","num_feature":"33","num_nodes":"9","size_leaf_vector":"1"}},{"base_weights":[5.1812466E-2,-2.158348E-2,8.7435E-2],"categories":[],"categories_nodes":[],"categories_segments":[],"categories_sizes":[],"default_left":[0,0,0],"id":3,"left_children":[1,-1,-1],"loss_changes":[7.4228406E0,0E0,0E0],"parents":[2147483647,0,0],"right_children":[2,-1,-1],"split_conditions":[9.18012E-1,-2.158348E-2,8.7435E-2],"split_indices":[24,0,0],"split_type":[0,0,0],"sum_hessian":[7.1275725E0,6.127359E0,1.0002136E0],"tree_param":{"num_deleted":"0","num_feature":"33","num_nodes":"3","size_leaf_vector":"1"}},{"base_weights":[9.157309E-3,4.0190485E-1,-1.8906589E0,2.8705785E-1,5.385791E-1,-2.3980901E0,2.6080188E-1,3.1398857E-1,-5.4900702E-2,2.752386E-2,-6.3605844E-3,-2.2925416E-3,-1.2604003E-1,2.48378E-2,-2.7042596E-2,2.2899205E-2,7.418841E-3],"categories":[],"categories_nodes":[],"categories_segments":[],"categories_sizes":[],"default_left":[0,0,0,0,0,0,0,0,0,0,0,0,0,0,0,0,0],"id":4,"left_children":[1,3,5,7,9,11,13,15,-1,-1,-1,-1,-1,-1,-1,-1,-1],"loss_changes":[1.6124518E2,2.6560802E0,4.104338E1,4.054058E0,7.0867157E-1,8.559616E0,1.7757275E0,2.2767944E0,0E0,0E0,0E0,0E0,0E0,0E0,0E0,0E0,0E0],"parents":[2147483647,0,0,1,1,2,2,3,3,4,4,5,5,6,6,7,7],"right_children":[2,4,6,8,10,12,14,16,-1,-1,-1,-1,-1,-1,-1,-1,-1],"split_conditions":[3.53359E-1,1.538E-3,5.91673E-1,1.030769E0,5.598201E0,1.2E1,7.64706E-1,1.07E-3,-5.4900702E-2,2.752386E-2,-6.3605844E-3,-2.2925416E-3,-1.2604003E-1,2.48378E-2,-2.7042596E-2,2.2899205E-2,7.418841E-3],"split_indices":[6,19,5,25,27,0,3,20,0,0,0,0,0,0,0,0,0],"split_type":[0,0,0,0,0,0,0,0,0,0,0,0,0,0,0,0,0],"sum_hessian":[2.1408507E2,1.7806274E2,3.6022324E1,9.844229E1,7.962045E1,2.9054953E1,6.9673696E0,9.732328E1,1.1190052E0,7.839273E1,1.2277273E0,1.508681E0,2.7546272E1,5.6768227E0,1.290547E0,5.1114773E1,4.620851E1],"tree_param":{"num_deleted":"0","num_feature":"33","num_nodes":"17","size_leaf_vector":"1"}},{"base_weights":[-1.3166709E-2,-3.9557308E-1,2.296694E0,-4.3884665E-1,2.1763463E-1,1.3738775E-1,-2.2871E-2,-2.7040629E-2,-3.2960647E-1,1.0313535E-1,-4.135753E-1,-1.051985E-2,-2.2708861E-2,-2.5397941E-2,8.099611E-3],"categories":[],"categories_nodes":[],"categories_segments":[],"categories_sizes":[],"default_left":[0,0,0,0,0,0,0,0,0,0,0,0,0,0,0],"id":5,"left_children":[1,3,5,7,9,-1,-1,-1,11,-1,13,-1,-1,-1,-1],"loss_changes":[1.7723041E2,4.6627197E0,3.6661865E1,1.6162243E0,1.4844832E1,0E0,0E0,0E0,1.0974522E0,0E0,6.1382115E-1,0E0,0E0,0E0,0E0],"parents":[2147483647,0,0,1,1,2,2,3,3,4,4,8,8,10,10],"right_children":[2,4,6,8,10,-1,-1,-1,12,-1,14,-1,-1,-1,-1],"split_conditions":[5.2632E-2,3.53359E-1,2E1,3.542325E3,4.39497E-1,1.3738775E-1,-2.2871E-2,-2.7040629E-2,8.814292E3,1.0313535E-1,1.9849546E3,-1.051985E-2,-2.2708861E-2,-2.5397941E-2,8.099611E-3],"split_indices":[12,6,0,23,6,0,0,0,23,0,25,0,0,0,0],"split_type":[0,0,0,0,0,0,0,0,0,0,0,0,0,0,0],"sum_hessian":[1.9861601E2,1.7111586E2,2.7500147E1,1.6010194E2,1.1013921E1,2.3632063E1,3.868084E0,8.076466E1,7.933727E1,2.2293901E0,8.784531E0,4.191509E1,3.7422184E1,7.647871E0,1.1366594E0],"tree_param":{"num_deleted":"0","num_feature":"33","num_nodes":"15","size_leaf_vector":"1"}},{"base_weights":[6.728778E-2,-1.3534357E-1,8.193522E-2,1.672344E-1,-2.2805136E-2,-3.5348737E-1,1.1719705E-1,1.09613035E-2,-2.2428991E-2],"categories":[],"categories_nodes":[],"categories_segments":[],"categories_sizes":[],"default_left":[0,0,0,0,0,0,0,0,0],"id":6,"left_children":[1,3,-1,5,-1,7,-1,-1,-1],"loss_changes":[7.1635184E0,2.04011E0,0E0,1.3459766E1,0E0,6.3541234E-1,0E0,0E0,0E0],"parents":[2147483647,0,0,1,1,3,3,5,5],"right_children":[2,4,-1,6,-1,8,-1,-1,-1],"split_conditions":[4.39497E-1,1.538E-3,8.193522E-2,1.182E-3,-2.2805136E-2,4.5E1,1.1719705E-1,1.09613035E-2,-2.2428991E-2],"split_indices":[6,19,0,20,0,0,0,0,0],"split_type":[0,0,0,0,0,0,0,0,0],"sum_hessian":[2.0800667E1,1.9234308E1,1.5663577E0,1.0143957E1,9.090351E0,8.86164E0,1.2823179E0,1.0759734E0,7.7856665E0],"tree_param":{"num_deleted":"0","num_feature":"33","num_nodes":"9","size_leaf_vector":"1"}},{"base_weights":[-7.386729E-2,-2.1602636E-2,6.1984744E-2],"categories":[],"categories_nodes":[],"categories_segments":[],"categories_sizes":[],"default_left":[0,0,0],"id":7,"left_children":[1,-1,-1],"loss_changes":[4.38319E0,0E0,0E0],"parents":[2147483647,0,0],"right_children":[2,-1,-1],"split_conditions":[1.028169E0,-2.1602636E-2,6.1984744E-2],"split_indices":[25,0,0],"split_type":[0,0,0],"sum_hessian":[7.1776547E0,6.1670823E0,1.0105724E0],"tree_param":{"num_deleted":"0","num_feature":"33","num_nodes":"3","size_leaf_vector":"1"}},{"base_weights":[1.0302521E-2,4.1535836E-1,-1.6436471E0,2.877579E-1,5.379623E-1,-2.0174274E0,2.547358E-1,3.1831175E-1,-4.9394704E-2,4.000595E-1,2.8522069E-2,-1.0457249E-1,-3.9948113E-3,2.4640163E-2,-2.6531596E-2,1.7350912E-2,-2.7116422E-2,2.1929411E-2,-8.479722E-4],"categories":[],"categories_nodes":[],"categories_segments":[],"categories_sizes":[],"default_left":[0,0,0,0,0,0,0,0,0,0,0,0,0,0,0,0,0,0,0],"id":8,"left_children":[1,3,5,7,9,11,13,15,-1,17,-1,-1,-1,-1,-1,-1,-1,-1,-1],"loss_changes":[1.4426878E2,2.5510578E0,3.0575073E1,3.7016273E0,1.6171646E-1,4.9254303E0,1.7305398E0,2.3037004E0,0E0,3.278725E-1,0E0,0E0,0E0,0E0,0E0,0E0,0E0,0E0,0E0],"parents":[2147483647,0,0,1,1,2,2,3,3,4,4,5,5,6,6,7,7,9,9],"right_children":[2,4,6,8,10,12,14,16,-1,18,-1,-1,-1,-1,-1,-1,-1,-1,-1],"split_conditions":[3.53359E-1,1.414E-3,5.91673E-1,1.403E-3,6.336667E2,9.78E2,7.64706E-1,1.021898E0,-4.9394704E-2,4.980721E0,2.8522069E-2,-1.0457249E-1,-3.9948113E-3,2.4640163E-2,-2.6531596E-2,1.7350912E-2,-2.7116422E-2,2.1929411E-2,-8.479722E-4],"split_indices":[6,19,5,19,23,22,3,25,0,27,0,0,0,0,0,0,0,0,0],"split_type":[0,0,0,0,0,0,0,0,0,0,0,0,0,0,0,0,0,0,0],"sum_hessian":[2.1332616E2,1.7196133E2,4.1364834E1,8.590376E1,8.605756E1,3.450775E1,6.857081E0,8.462727E1,1.2764843E0,1.8943373E1,6.71142E1,3.31614E1,1.3463547E0,5.5478787E0,1.3092022E0,8.247319E1,2.154086E0,1.7293856E1,1.6495169E0],"tree_param":{"num_deleted":"0","num_feature":"33","num_nodes":"19","size_leaf_vector":"1"}},{"base_weights":[4.1910512E-3,-3.638514E-1,1.8958336E0,-4.137536E-1,2.9152486E-1,1.1210109E-1,-2.29284E-2,-2.8663877E-1,-5.240099E-1,9.236144E-2,-4.011455E-1,-2.2222944E-2,-9.054884E-3,-2.6804162E-2,9.047736E-3,2.2414622E-3,-2.488118E-2],"categories":[],"categories_nodes":[],"categories_segments":[],"categories_sizes":[],"default_left":[0,0,0,0,0,0,0,0,0,0,0,0,0,0,0,0,0],"id":9,"left_children":[1,3,5,7,9,-1,-1,11,13,-1,15,-1,-1,-1,-1,-1,-1],"loss_changes":[1.3478896E2,5.4214554E0,2.6729431E1,1.9664745E0,1.3731136E1,0E0,0E0,1.1247392E0,7.75095E-1,0E0,4.1654503E-1,0E0,0E0,0E0,0E0,0E0,0E0],"parents":[2147483647,0,0,1,1,2,2,3,3,4,4,7,7,8,8,10,10],"right_children":[2,4,6,8,10,-1,-1,12,14,-1,16,-1,-1,-1,-1,-1,-1],"split_conditions":[5.2632E-2,3.53359E-1,1.9E1,1.147E-3,4.39497E-1,1.1210109E-1,-2.29284E-2,1.4765E-2,1.3740622E1,9.236144E-2,6E0,-2.2222944E-2,-9.054884E-3,-2.6804162E-2,9.047736E-3,2.2414622E-3,-2.488118E-2],"split_indices":[12,6,0,20,6,0,0,24,26,0,0,0,0,0,0,0,0],"split_type":[0,0,0,0,0,0,0,0,0,0,0,0,0,0,0,0,0],"sum_hessian":[1.9161453E2,1.6108174E2,3.053279E1,1.5002695E2,1.1054797E1,2.6660408E1,3.872381E0,7.135791E1,7.866903E1,2.8922105E0,8.162587E0,2.7309538E1,4.404837E1,7.757994E1,1.0890914E0,1.5469729E0,6.615614E0],"tree_param":{"num_deleted":"0","num_feature":"33","num_nodes":"17","size_leaf_vector":"1"}},{"base_weights":[6.456831E-2,7.974261E-2,-1.3631408E-1,1.2492661E-1,-2.2617336E-2,-3.5625207E-1,8.915224E-2,6.350075E-3,-2.2385871E-2],"categories":[],"categories_nodes":[],"categories_segments":[],"categories_sizes":[],"default_left":[0,0,0,0,0,0,0,0,0],"id":10,"left_children":[1,-1,3,5,-1,7,-1,-1,-1],"loss_changes":[6.9505177E0,0E0,1.7310535E0,1.0119634E1,0E0,5.009545E-1,0E0,0E0,0E0],"parents":[2147483647,0,0,2,2,3,3,5,5],"right_children":[2,-1,4,6,-1,8,-1,-1,-1],"split_conditions":[9.11765E-1,7.974261E-2,1.538E-3,1.182E-3,-2.2617336E-2,1.160311E0,8.915224E-2,6.350075E-3,-2.2385871E-2],"split_indices":[16,0,19,20,0,26,0,0,0],"split_type":[0,0,0,0,0,0,0,0,0],"sum_hessian":[2.0902933E1,1.6203305E0,1.9282602E1,1.0887456E1,8.395147E0,9.047156E0,1.840299E0,1.3780041E0,7.6691527E0],"tree_param":{"num_deleted":"0","num_feature":"33","num_nodes":"9","size_leaf_vector":"1"}},{"base_weights":[5.9738647E-2,-2.1520048E-2,8.702507E-2],"categories":[],"categories_nodes":[],"categories_segments":[],"categories_sizes":[],"default_left":[0,0,0],"id":11,"left_children":[1,-1,-1],"loss_changes":[7.350304E0,0E0,0E0],"parents":[2147483647,0,0],"right_children":[2,-1,-1],"split_conditions":[1.027778E0,-2.1520048E-2,8.702507E-2],"split_indices":[25,0,0],"split_type":[0,0,0],"sum_hessian":[7.013017E0,6.0056043E0,1.0074133E0],"tree_param":{"num_deleted":"0","num_feature":"33","num_nodes":"3","size_leaf_vector":"1"}},{"base_weights":[9.65649E-3,3.9136308E-1,-1.4059709E0,2.8952497E-1,5.25322E-1,-1.696701E0,2.4682587E-2,3.157567E-1,-4.7096033E-2,2.692518E-2,-6.8634674E-3,-1.3932878E-1,-8.9980714E-2,2.2379784E-2,8.521808E-3,-3.398418E-2,1.7693948E-2],"categories":[],"categories_nodes":[],"categories_segments":[],"categories_sizes":[],"default_left":[0,0,0,0,0,0,0,0,0,0,0,0,0,0,0,0,0],"id":12,"left_children":[1,3,5,7,9,11,-1,13,-1,-1,-1,15,-1,-1,-1,-1,-1],"loss_changes":[1.1629938E2,2.1602383E0,2.6082321E1,3.4799852E0,7.0256424E-1,6.139145E0,0E0,1.786273E0,0E0,0E0,0E0,1.1880045E0,0E0,0E0,0E0,0E0,0E0],"parents":[2147483647,0,0,1,1,2,2,3,3,4,4,5,5,7,7,11,11],"right_children":[2,4,6,8,10,12,-1,14,-1,-1,-1,16,-1,-1,-1,-1,-1],"split_conditions":[3.53359E-1,1.518E-3,8.11278E-1,1.030769E0,5.598201E0,1.1E1,2.4682587E-2,1.07E-3,-4.7096033E-2,2.692518E-2,-6.8634674E-3,1.688E-3,-8.9980714E-2,2.2379784E-2,8.521808E-3,-3.398418E-2,1.7693948E-2],"split_indices":[6,20,5,25,27,0,0,20,0,0,0,20,0,0,0,0,0],"split_type":[0,0,0,0,0,0,0,0,0,0,0,0,0,0,0,0,0],"sum_hessian":[2.1320967E2,1.6849942E2,4.4710262E1,9.7522354E1,7.097706E1,3.886842E1,5.841843E0,9.621638E1,1.3059744E0,6.9776215E1,1.2008464E0,2.5551715E0,3.6313248E1,4.935766E1,4.6858723E1,1.0388868E0,1.5162848E0],"tree_param":{"num_deleted":"0","num_feature":"33","num_nodes":"17","size_leaf_vector":"1"}},{"base_weights":[1.1617454E-2,-3.5700342E-1,1.6487207E0,-4.0483487E-1,2.4785234E-1,9.625819E-2,-2.3148289E-2,-2.7212062E-1,-5.2071226E-1,8.156241E-2,-4.047289E-1,-1.8576492E-2,-5.980409E-3,-2.6634857E-2,6.2936926E-3,2.2399873E-3,-2.4985772E-2],"categories":[],"categories_nodes":[],"categories_segments":[],"categories_sizes":[],"default_left":[0,0,0,0,0,0,0,0,0,0,0,0,0,0,0,0,0],"id":13,"left_children":[1,3,5,7,9,-1,-1,11,13,-1,15,-1,-1,-1,-1,-1,-1],"loss_changes":[1.2049272E2,4.8160152E0,2.2311981E1,2.1871014E0,1.2003878E1,0E0,0E0,1.0575066E0,6.8504906E-1,0E0,4.211552E-1,0E0,0E0,0E0,0E0,0E0,0E0],"parents":[2147483647,0,0,1,1,2,2,3,3,4,4,7,7,8,8,10,10],"right_children":[2,4,6,8,10,-1,-1,12,14,-1,16,-1,-1,-1,-1,-1,-1],"split_conditions":[5.2632E-2,3.53359E-1,2E1,1.147E-3,4.39497E-1,9.625819E-2,-2.3148289E-2,1.07E-3,1.2766E-1,8.156241E-2,6E0,-1.8576492E-2,-5.980409E-3,-2.6634857E-2,6.2936926E-3,2.2399873E-3,-2.4985772E-2],"split_indices":[12,6,0,20,6,0,0,20,13,0,0,0,0,0,0,0,0],"split_type":[0,0,0,0,0,0,0,0,0,0,0,0,0,0,0,0,0],"sum_hessian":[1.9769095E2,1.6199664E2,3.5694294E1,1.5043137E2,1.1565286E1,3.1640528E1,4.053766E0,7.168218E1,7.874918E1,3.2262747E0,8.339011E0,4.2526752E1,2.9155432E1,7.748901E1,1.2601671E0,1.5468451E0,6.7921658E0],"tree_param":{"num_deleted":"0","num_feature":"33","num_nodes":"17","size_leaf_vector":"1"}},{"base_weights":[2.225423E-2,1.3380897E0,-2.2018647E-1,-1.4901802E-2,1.2990324E-1,2.6122198E-1,-4.0119588E-1,-1.9861003E-2,7.357123E-2,7.1469876E-3,-2.3360377E-2],"categories":[],"categories_nodes":[],"categories_segments":[],"categories_sizes":[],"default_left":[0,0,0,0,0,0,0,0,0,0,0],"id":14,"left_children":[1,3,5,-1,-1,7,9,-1,-1,-1,-1],"loss_changes":[7.236825E0,8.045189E0,1.7808874E0,0E0,0E0,5.255282E0,5.8304787E-1,0E0,0E0,0E0,0E0],"parents":[2147483647,0,0,1,1,2,2,5,5,6,6],"right_children":[2,4,6,-1,-1,8,10,-1,-1,-1,-1],"split_conditions":[1.19105E0,1.143121E0,3.305E2,-1.4901802E-2,1.2990324E-1,3.025E2,1.288133E0,-1.9861003E-2,7.357123E-2,7.1469876E-3,-2.3360377E-2],"split_indices":[26,27,22,0,0,21,27,0,0,0,0],"split_type":[0,0,0,0,0,0,0,0,0,0,0],"sum_hessian":[2.0761543E1,2.5270195E0,1.8234524E1,1.4315526E0,1.095467E0,4.861596E0,1.3372929E1,3.5836127E0,1.2779833E0,1.3207321E0,1.20521965E1],"tree_param":{"num_deleted":"0","num_feature":"33","num_nodes":"11","size_leaf_vector":"1"}},{"base_weights":[-6.424719E-2,6.2158674E-2,-2.1512743E-2],"categories":[],"categories_nodes":[],"categories_segments":[],"categories_sizes":[],"default_left":[0,0,0],"id":15,"left_children":[1,-1,-1],"loss_changes":[4.3621626E0,0E0,0E0],"parents":[2147483647,0,0],"right_children":[2,-1,-1],"split_conditions":[3.0830768E2,6.2158674E-2,-2.1512743E-2],"split_indices":[22,0,0],"split_type":[0,0,0],"sum_hessian":[6.998064E0,1.0064244E0,5.9916396E0],"tree_param":{"num_deleted":"0","num_feature":"33","num_nodes":"3","size_leaf_vector":"1"}},{"base_weights":[1.322066E-2,3.962194E-1,-1.2857631E0,2.897395E-1,5.2327377E-1,-1.5656054E0,2.6910308E-1,3.3448473E-1,-1.7932658E-1,2.6791496E-2,-1.1520234E-3,-8.086946E-2,-2.5023646E-3,2.4443358E-2,-1.9555597E-2,1.813666E-2,-2.1441936E-2,-2.8718442E-2,2.1575684E-2],"categories":[],"categories_nodes":[],"categories_segments":[],"categories_sizes":[],"default_left":[0,0,0,0,0,0,0,0,0,0,0,0,0,0,0,0,0,0,0],"id":16,"left_children":[1,3,5,7,9,11,13,15,17,-1,-1,-1,-1,-1,-1,-1,-1,-1,-1],"loss_changes":[1.0663347E2,2.0874348E0,2.165844E1,1.9968519E0,5.214672E-1,3.1768188E0,1.3951476E0,1.9796534E0,2.3441868E0,0E0,0E0,0E0,0E0,0E0,0E0,0E0,0E0,0E0,0E0],"parents":[2147483647,0,0,1,1,2,2,3,3,4,4,5,5,6,6,7,7,8,8],"right_children":[2,4,6,8,10,12,14,16,18,-1,-1,-1,-1,-1,-1,-1,-1,-1,-1],"split_conditions":[3.53359E-1,1.538E-3,4.39497E-1,1.182E-3,1.33333E-1,2.1E-3,7.64706E-1,1.021898E0,3.03E2,2.6791496E-2,-1.1520234E-3,-8.086946E-2,-2.5023646E-3,2.4443358E-2,-1.9555597E-2,1.813666E-2,-2.1441936E-2,-2.8718442E-2,2.1575684E-2],"split_indices":[6,19,5,20,10,20,3,25,21,0,0,0,0,0,0,0,0,0,0],"split_type":[0,0,0,0,0,0,0,0,0,0,0,0,0,0,0,0,0,0,0],"sum_hessian":[2.123107E2,1.6450285E2,4.780785E1,9.1282524E1,7.322032E1,4.0510017E1,7.2978344E0,8.3595116E1,7.687409E0,7.159404E1,1.6262815E0,3.910663E1,1.403387E0,5.6700068E0,1.6278273E0,8.1117966E1,2.47715E0,4.7045755E0,2.9828334E0],"tree_param":{"num_deleted":"0","num_feature":"33","num_nodes":"19","size_leaf_vector":"1"}},{"base_weights":[2.8168816E-2,-3.4397712E-1,1.4830331E0,-4.052259E-1,3.2400277E-1,8.4496945E-2,-2.264654E-2,-2.6330242E-2,-2.7630794E-1,7.631097E-2,-4.018967E-1,-1.6697345E-2,-3.6149748E-4,-2.4968399E-2,4.8176837E-3],"categories":[],"categories_nodes":[],"categories_segments":[],"categories_sizes":[],"default_left":[0,0,0,0,0,0,0,0,0,0,0,0,0,0,0],"id":17,"left_children":[1,3,5,7,9,-1,-1,-1,11,-1,13,-1,-1,-1,-1],"loss_changes":[1.0477307E2,6.438387E0,1.6553017E1,2.071106E0,1.23978815E1,0E0,0E0,0E0,1.0956206E0,0E0,4.9546647E-1,0E0,0E0,0E0,0E0],"parents":[2147483647,0,0,1,1,2,2,3,3,4,4,8,8,10,10],"right_children":[2,4,6,8,10,-1,-1,-1,12,-1,14,-1,-1,-1,-1],"split_conditions":[5.2632E-2,3.53359E-1,2E1,3.6901667E3,4.39497E-1,8.4496945E-2,-2.264654E-2,-2.6330242E-2,1.011364E0,7.631097E-2,1.9849546E3,-1.6697345E-2,-3.6149748E-4,-2.4968399E-2,4.8176837E-3],"split_indices":[12,6,0,22,6,0,0,0,25,0,25,0,0,0,0],"split_type":[0,0,0,0,0,0,0,0,0,0,0,0,0,0,0],"sum_hessian":[1.9157248E2,1.5315887E2,3.8413597E1,1.406552E2,1.2503675E1,3.4819366E1,3.594234E0,7.085703E1,6.979817E1,4.2923203E0,8.211355E0,5.7285927E1,1.2512243E1,6.8659463E0,1.3454087E0],"tree_param":{"num_deleted":"0","num_feature":"33","num_nodes":"15","size_leaf_vector":"1"}},{"base_weights":[8.346952E-2,1.2427964E0,-1.5430997E-1,-1.541731E-2,1.2519865E-1,2.6761726E-1,-3.2242483E-1,-2.0077309E-2,8.498322E-2,4.6370212E-2,-2.279104E-2,-1.8007608E-2,3.5456177E-2],"categories":[],"categories_nodes":[],"categories_segments":[],"categories_sizes":[],"default_left":[0,0,0,0,0,0,0,0,0,0,0,0,0],"id":18,"left_children":[1,3,5,-1,-1,7,9,-1,-1,11,-1,-1,-1],"loss_changes":[6.035318E0,8.045942E0,1.3971009E0,0E0,0E0,6.251705E0,6.935488E-1,0E0,0E0,1.4781172E0,0E0,0E0,0E0],"parents":[2147483647,0,0,1,1,2,2,5,5,6,6,9,9],"right_children":[2,4,6,-1,-1,8,10,-1,-1,12,-1,-1,-1],"split_conditions":[1.19105E0,1.4978E-2,3.305E2,-1.541731E-2,1.2519865E-1,3.0283334E2,1.479912E0,-2.0077309E-2,8.498322E-2,1.136E-3,-2.279104E-2,-1.8007608E-2,3.5456177E-2],"split_indices":[26,24,22,0,0,21,27,0,0,20,0,0,0],"split_type":[0,0,0,0,0,0,0,0,0,0,0,0,0],"sum_hessian":[2.0198046E1,2.7182353E0,1.747981E1,1.5577908E0,1.1604446E0,4.811713E0,1.2668097E1,3.76978E0,1.0419335E0,3.5382917E0,9.129806E0,2.4760835E0,1.0622083E0],"tree_param":{"num_deleted":"0","num_feature":"33","num_nodes":"13","size_leaf_vector":"1"}},{"base_weights":[6.4323284E-2,-2.1487134E-2,8.729715E-2],"categories":[],"categories_nodes":[],"categories_segments":[],"categories_sizes":[],"default_left":[0,0,0],"id":19,"left_children":[1,-1,-1],"loss_changes":[7.3538375E0,0E0,0E0],"parents":[2147483647,0,0],"right_children":[2,-1,-1],"split_conditions":[9.0909E-2,-2.1487134E-2,8.729715E-2],"split_indices":[8,0,0],"split_type":[0,0,0],"sum_hessian":[6.9481044E0,5.945687E0,1.0024172E0],"tree_param":{"num_deleted":"0","num_feature":"33","num_nodes":"3","size_leaf_vector":"1"}},{"base_weights":[-2.059181E-3,3.7217706E-1,-1.1708213E0,2.3205283E-1,5.212557E-1,-1.3352903E0,2.321454E-2,2.711376E-1,-8.308786E-1,2.6684985E-2,-4.191001E-3,2.0955929E-1,-7.280751E-2,1.50415255E-2,-2.7857913E-2,-5.6417346E-2,-7.963105E-3,2.0087736E-2,-1.0047214E-2],"categories":[],"categories_nodes":[],"categories_segments":[],"categories_sizes":[],"default_left":[0,0,0,0,0,0,0,0,0,0,0,0,0,0,0,0,0,0,0],"id":20,"left_children":[1,3,5,7,9,11,-1,13,15,-1,-1,17,-1,-1,-1,-1,-1,-1,-1],"loss_changes":[9.096204E1,3.1697464E0,1.4184242E1,3.6737008E0,6.133938E-1,8.910088E0,0E0,2.1552334E0,4.5760274E-1,0E0,0E0,4.1353023E-1,0E0,0E0,0E0,0E0,0E0,0E0,0E0],"parents":[2147483647,0,0,1,1,2,2,3,3,4,4,5,5,7,7,8,8,11,11],"right_children":[2,4,6,8,10,12,-1,14,16,-1,-1,18,-1,-1,-1,-1,-1,-1,-1],"split_conditions":[3.53359E-1,1.47E-3,1.521928E0,2.188455E0,5.598201E0,1.1E1,2.321454E-2,1.182E-3,4.001055E0,2.6684985E-2,-4.191001E-3,1.66667E-1,-7.280751E-2,1.50415255E-2,-2.7857913E-2,-5.6417346E-2,-7.963105E-3,2.0087736E-2,-1.0047214E-2],"split_indices":[6,19,6,27,27,0,0,20,26,0,0,10,0,0,0,0,0,0,0],"split_type":[0,0,0,0,0,0,0,0,0,0,0,0,0,0,0,0,0,0,0],"sum_hessian":[2.059678E2,1.5652896E2,4.943883E1,8.20056E1,7.452337E1,4.508708E1,4.3517537E0,7.9815636E1,2.189963E0,7.313719E1,1.3861756E0,3.2181623E0,4.1868916E1,7.7668175E1,2.1474586E0,1.0464356E0,1.1435274E0,2.2064347E0,1.0117276E0],"tree_param":{"num_deleted":"0","num_feature":"33","num_nodes":"19","size_leaf_vector":"1"}},{"base_weights":[-3.355431E-3,-3.6263916E-1,1.2983247E0,-4.141634E-1,2.593848E-1,7.478709E-2,-2.3055594E-2,-2.8444847E-1,-5.24964E-1,6.649052E-2,-3.8211754E-1,-1.7160505E-2,3.208777E-3,-2.6907766E-2,1.081331E-2,-2.4395935E-2,4.8868717E-3],"categories":[],"categories_nodes":[],"categories_segments":[],"categories_sizes":[],"default_left":[0,0,0,0,0,0,0,0,0,0,0,0,0,0,0,0,0],"id":21,"left_children":[1,3,5,7,9,-1,-1,11,13,-1,15,-1,-1,-1,-1,-1,-1],"loss_changes":[8.9613716E1,4.9199715E0,1.5086777E1,1.8492947E0,8.818137E0,0E0,0E0,1.3790851E0,8.3813095E-1,0E0,4.7128963E-1,0E0,0E0,0E0,0E0,0E0,0E0],"parents":[2147483647,0,0,1,1,2,2,3,3,4,4,7,7,8,8,10,10],"right_children":[2,4,6,8,10,-1,-1,12,14,-1,16,-1,-1,-1,-1,-1,-1],"split_conditions":[5.2632E-2,3.53359E-1,2E1,1.143E-3,4.39497E-1,7.478709E-2,-2.3055594E-2,1.011407E0,7.3529E-2,6.649052E-2,1.7631351E3,-1.7160505E-2,3.208777E-3,-2.6907766E-2,1.081331E-2,-2.4395935E-2,4.8868717E-3],"split_indices":[12,6,0,20,6,0,0,25,10,0,25,0,0,0,0,0,0],"split_type":[0,0,0,0,0,0,0,0,0,0,0,0,0,0,0,0,0],"sum_hessian":[1.8960966E2,1.4916049E2,4.044918E1,1.3805879E2,1.11016865E1,3.6503223E1,3.9459574E0,6.52442E1,7.28146E1,3.7580142E0,7.3436723E0,5.5846615E1,9.397588E0,7.1810585E1,1.0040131E0,6.003239E0,1.340433E0],"tree_param":{"num_deleted":"0","num_feature":"33","num_nodes":"17","size_leaf_vector":"1"}},{"base_weights":[-6.694006E-2,6.957304E-2,-2.779093E-1,4.003865E-2,-4.0060076E-1,-2.0697558E-2,6.2197417E-2,1.2144714E-2,-2.3382096E-2],"categories":[],"categories_nodes":[],"categories_segments":[],"categories_sizes":[],"default_left":[0,0,0,0,0,0,0,0,0],"id":22,"left_children":[1,-1,3,5,7,-1,-1,-1,-1],"loss_changes":[7.040404E0,0E0,7.855457E-1,4.0138474E0,7.3155355E-1,0E0,0E0,0E0,0E0],"parents":[2147483647,0,0,2,2,3,3,4,4],"right_children":[2,-1,4,6,8,-1,-1,-1,-1],"split_conditions":[9.11765E-1,6.957304E-2,6.335E2,3.0241666E2,1.182284E0,-2.0697558E-2,6.2197417E-2,1.2144714E-2,-2.3382096E-2],"split_indices":[16,0,23,21,26,0,0,0,0],"split_type":[0,0,0,0,0,0,0,0,0],"sum_hessian":[2.0625563E1,1.8994399E0,1.8726124E1,5.401669E0,1.3324454E1,4.3989882E0,1.0026808E0,1.0097067E0,1.2314748E1],"tree_param":{"num_deleted":"0","num_feature":"33","num_nodes":"9","size_leaf_vector":"1"}},{"base_weights":[-5.0024245E-2,6.1460417E-2,-2.1366937E-2],"categories":[],"categories_nodes":[],"categories_segments":[],"categories_sizes":[],"default_left":[0,0,0],"id":23,"left_children":[1,-1,-1],"loss_changes":[4.264225E0,0E0,0E0],"parents":[2147483647,0,0],"right_children":[2,-1,-1],"split_conditions":[3.0823077E2,6.1460417E-2,-2.1366937E-2],"split_indices":[22,0,0],"split_type":[0,0,0],"sum_hessian":[6.7463155E0,1.0223607E0,5.7239547E0],"tree_param":{"num_deleted":"0","num_feature":"33","num_nodes":"3","size_leaf_vector":"1"}},{"base_weights":[-4.599561E-3,3.6255878E-1,-1.1027108E0,2.4758326E-1,5.118481E-1,-1.2678571E0,2.3505649E-2,2.7487236E-1,-4.777904E-2,5.258315E-1,-7.858799E-3,1.570866E-2,-1.3148223E0,1.4684436E-2,-3.162158E-2,2.014192E-2,2.7665181E-2,-6.702918E-2,-7.413762E-3],"categories":[],"categories_nodes":[],"categories_segments":[],"categories_sizes":[],"default_left":[0,0,0,0,0,0,0,0,0,0,0,0,0,0,0,0,0,0,0],"id":24,"left_children":[1,3,5,7,9,11,-1,13,-1,15,-1,-1,17,-1,-1,-1,-1,-1,-1],"loss_changes":[8.441632E1,2.5667667E0,1.4223106E1,3.236875E0,7.125912E-1,3.960823E0,0E0,1.7111835E0,0E0,7.4768066E-4,0E0,0E0,1.2005615E0,0E0,0E0,0E0,0E0,0E0,0E0],"parents":[2147483647,0,0,1,1,2,2,3,3,4,4,5,5,7,7,9,9,12,12],"right_children":[2,4,6,8,10,12,-1,14,-1,16,-1,-1,18,-1,-1,-1,-1,-1,-1],"split_conditions":[3.53359E-1,1.538E-3,8.11278E-1,1.39233E-1,1.33333E-1,5E-1,2.3505649E-2,1.1532111E4,-4.777904E-2,3.3066666E2,-7.858799E-3,1.570866E-2,9.003612E6,1.4684436E-2,-3.162158E-2,2.014192E-2,2.7665181E-2,-6.702918E-2,-7.413762E-3],"split_indices":[6,19,5,9,10,16,0,22,0,22,0,0,21,0,0,0,0,0,0],"split_type":[0,0,0,0,0,0,0,0,0,0,0,0,0,0,0,0,0,0,0],"sum_hessian":[2.073843E2,1.5592119E2,5.14631E1,8.958528E1,6.633591E1,4.6748425E1,4.714679E0,8.835288E1,1.2324007E0,6.518745E1,1.1484661E0,1.1837635E0,4.556466E1,8.7220345E1,1.132535E0,1.4761857E1,5.0425587E1,4.4434216E1,1.1304455E0],"tree_param":{"num_deleted":"0","num_feature":"33","num_nodes":"19","size_leaf_vector":"1"}},{"base_weights":[4.8242374E-3,-3.3521447E-1,1.1777191E0,-2.2707064E-1,-5.099032E-1,6.780593E-2,-2.3025354E-2,-3.1485778E-1,5.489933E-2,-2.636886E-2,1.0352927E-2,-2.3180295E-2,-1.2398874E-2],"categories":[],"categories_nodes":[],"categories_segments":[],"categories_sizes":[],"default_left":[0,0,0,0,0,0,0,0,0,0,0,0,0],"id":25,"left_children":[1,3,5,7,9,-1,-1,11,-1,-1,-1,-1,-1],"loss_changes":[7.502078E1,2.639288E0,1.2980011E1,1.1033153E1,7.977381E-1,0E0,0E0,7.5E-1,0E0,0E0,0E0,0E0,0E0],"parents":[2147483647,0,0,1,1,2,2,3,3,4,4,7,7],"right_children":[2,4,6,8,10,-1,-1,12,-1,-1,-1,-1,-1],"split_conditions":[5.2632E-2,4.192696E0,2E1,4.001055E0,9.855681E0,6.780593E-2,-2.3025354E-2,1.196292E0,5.489933E-2,-2.636886E-2,1.0352927E-2,-2.3180295E-2,-1.2398874E-2],"split_indices":[12,26,0,26,27,0,0,26,0,0,0,0,0],"split_type":[0,0,0,0,0,0,0,0,0,0,0,0,0],"sum_hessian":[1.8611246E2,1.4483652E2,4.1275944E1,9.0877335E1,5.3959187E1,3.7377785E1,3.8981597E0,8.594568E1,4.931654E0,5.2933502E1,1.0256836E0,2.4817444E1,6.1128235E1],"tree_param":{"num_deleted":"0","num_feature":"33","num_nodes":"13","size_leaf_vector":"1"}},{"base_weights":[9.326103E-2,-7.676511E-2,8.46451E-2,2.0338716E-1,-2.2440972E-2,-3.3792055E-1,1.3673484E0,8.450848E-3,-2.2008743E-2,1.3678277E-1,-2.54629E-4],"categories":[],"categories_nodes":[],"categories_segments":[],"categories_sizes":[],"default_left":[0,0,0,0,0,0,0,0,0,0,0],"id":26,"left_children":[1,3,-1,5,-1,7,9,-1,-1,-1,-1],"loss_changes":[5.8007884E0,2.1554403E0,0E0,8.013438E0,0E0,5.4001975E-1,7.530573E0,0E0,0E0,0E0,0E0],"parents":[2147483647,0,0,1,1,3,3,5,5,6,6],"right_children":[2,4,-1,6,-1,8,10,-1,-1,-1,-1],"split_conditions":[3E0,1.619E-3,8.46451E-2,1.182E-3,-2.2440972E-2,1.160311E0,9.16793E-1,8.450848E-3,-2.2008743E-2,1.3678277E-1,-2.54629E-4],"split_indices":[1,20,0,20,0,26,24,0,0,0,0],"split_type":[0,0,0,0,0,0,0,0,0,0,0],"sum_hessian":[1.9850122E1,1.8803507E1,1.0466173E0,1.0985159E1,7.8183475E0,7.9825177E0,3.0026407E0,1.2302926E0,6.752225E0,1.0061972E0,1.9964434E0],"tree_param":{"num_deleted":"0","num_feature":"33","num_nodes":"11","size_leaf_vector":"1"}},{"base_weights":[8.681269E-2,-2.1306958E-2,8.6068556E-2],"categories":[],"categories_nodes":[],"categories_segments":[],"categories_sizes":[],"default_left":[0,0,0],"id":27,"left_children":[1,-1,-1],"loss_changes":[7.1429853E0,0E0,0E0],"parents":[2147483647,0,0],"right_children":[2,-1,-1],"split_conditions":[1E-1,-2.1306958E-2,8.6068556E-2],"split_indices":[10,0,0],"split_type":[0,0,0],"sum_hessian":[6.644396E0,5.62003E0,1.0243657E0],"tree_param":{"num_deleted":"0","num_feature":"33","num_nodes":"3","size_leaf_vector":"1"}},{"base_weights":[-9.853547E-3,3.688949E-1,-1.0352755E0,2.524127E-1,5.0852436E-1,-1.1877879E0,2.344426E-2,2.9362792E-1,-2.7026796E-1,2.6125683E-2,-5.293461E-3,1.5475496E-2,-1.229406E0,1.5745634E-2,-2.6163219E-2,-2.9955534E-2,1.8424347E-2,-2.0449888E-2,-6.241029E-2],"categories":[],"categories_nodes":[],"categories_segments":[],"categories_sizes":[],"default_left":[0,0,0,0,0,0,0,0,0,0,0,0,0,0,0,0,0,0,0],"id":28,"left_children":[1,3,5,7,9,11,-1,13,15,-1,-1,-1,17,-1,-1,-1,-1,-1,-1],"loss_changes":[7.918359E1,2.2935486E0,1.3172085E1,1.8710208E0,6.289406E-1,3.5094452E0,0E0,1.5135117E0,1.6070002E0,0E0,0E0,0E0,2.4609375E-1,0E0,0E0,0E0,0E0,0E0,0E0],"parents":[2147483647,0,0,1,1,2,2,3,3,4,4,5,5,7,7,8,8,12,12],"right_children":[2,4,6,8,10,12,-1,14,16,-1,-1,-1,18,-1,-1,-1,-1,-1,-1],"split_conditions":[3.53359E-1,1.538E-3,8.11278E-1,1.2E-3,1.2766E-1,5E-1,2.344426E-2,1.1555583E4,3.03E2,2.6125683E-2,-5.293461E-3,1.5475496E-2,1.1E1,1.5745634E-2,-2.6163219E-2,-2.9955534E-2,1.8424347E-2,-2.0449888E-2,-6.241029E-2],"split_indices":[6,19,5,20,13,16,0,23,21,0,0,0,0,0,0,0,0,0,0],"split_type":[0,0,0,0,0,0,0,0,0,0,0,0,0,0,0,0,0,0,0],"sum_hessian":[2.0190001E2,1.4790884E2,5.399116E1,8.216913E1,6.5739716E1,4.9211735E1,4.779427E0,7.656957E1,5.599554E0,6.442241E1,1.317304E0,1.1567949E0,4.805494E1,7.522405E1,1.3455213E0,3.7374904E0,1.8620635E0,1.5862827E0,4.6468655E1],"tree_param":{"num_deleted":"0","num_feature":"33","num_nodes":"19","size_leaf_vector":"1"}},{"base_weights":[-6.2970277E-3,-3.31624E-1,1.106775E0,-4.1460916E-1,-6.8162955E-2,6.2614836E-2,-2.2175653E-2,-3.1084615E-1,-2.541002E-2,-2.8672022E-1,5.9249514E-1,-3.9962362E-4,-1.7871205E-2,-2.3871211E-2,6.669973E-3,5.8040757E-2,-1.1136371E-2],"categories":[],"categories_nodes":[],"categories_segments":[],"categories_sizes":[],"default_left":[0,0,0,0,0,0,0,0,0,0,0,0,0,0,0,0,0],"id":29,"left_children":[1,3,5,7,9,-1,-1,11,-1,13,15,-1,-1,-1,-1,-1,-1],"loss_changes":[6.7252365E1,3.113552E0,1.0032135E1,9.013748E-1,5.312834E0,0E0,0E0,7.6319885E-1,0E0,2.2619762E0,4.5117664E0,0E0,0E0,0E0,0E0,0E0,0E0],"parents":[2147483647,0,0,1,1,2,2,3,3,4,4,7,7,9,9,10,10],"right_children":[2,4,6,8,10,-1,-1,12,-1,14,16,-1,-1,-1,-1,-1,-1],"split_conditions":[5.2632E-2,1.011407E0,2E1,7.64706E-1,4.780545E0,6.2614836E-2,-2.2175653E-2,1.14E-3,-2.541002E-2,4.8E1,2.875965E2,-3.9962362E-4,-1.7871205E-2,-2.3871211E-2,6.669973E-3,5.8040757E-2,-1.1136371E-2],"split_indices":[12,25,0,3,27,0,0,19,0,0,21,0,0,0,0,0,0],"split_type":[0,0,0,0,0,0,0,0,0,0,0,0,0,0,0,0,0],"sum_hessian":[1.8370879E2,1.427021E2,4.100668E1,1.0808401E2,3.461809E1,3.7663517E1,3.343162E0,5.330593E1,5.477808E1,2.6437958E1,8.180132E0,7.261652E0,4.6044277E1,1.8090004E1,8.347955E0,4.5701776E0,3.609954E0],"tree_param":{"num_deleted":"0","num_feature":"33","num_nodes":"17","size_leaf_vector":"1"}},{"base_weights":[-5.453052E-3,-1.8030892E-1,8.671405E-2,1.0270032E-1,-2.2853877E-2,-2.2427104E-2,8.989995E-2],"categories":[],"categories_nodes":[],"categories_segments":[],"categories_sizes":[],"default_left":[0,0,0,0,0,0,0],"id":30,"left_children":[1,3,-1,5,-1,-1,-1],"loss_changes":[6.6890597E0,1.6097734E0,0E0,1.0788564E1,0E0,0E0,0E0],"parents":[2147483647,0,0,1,1,3,3],"right_children":[2,4,-1,6,-1,-1,-1],"split_conditions":[5.5E1,1.518E-3,8.671405E-2,1.182E-3,-2.2853877E-2,-2.2427104E-2,8.989995E-2],"split_indices":[0,20,0,20,0,0,0],"split_type":[0,0,0,0,0,0,0],"sum_hessian":[1.996087E1,1.8952377E1,1.008493E0,9.681504E0,9.270874E0,7.8608837E0,1.8206207E0],"tree_param":{"num_deleted":"0","num_feature":"33","num_nodes":"7","size_leaf_vector":"1"}},{"base_weights":[9.251248E-2,-2.1272196E-2,8.683901E-2],"categories":[],"categories_nodes":[],"categories_segments":[],"categories_sizes":[],"default_left":[0,0,0],"id":31,"left_children":[1,-1,-1],"loss_changes":[7.1863637E0,0E0,0E0],"parents":[2147483647,0,0],"right_children":[2,-1,-1],"split_conditions":[1.09736E0,-2.1272196E-2,8.683901E-2],"split_indices":[25,0,0],"split_type":[0,0,0],"sum_hessian":[6.570473E0,5.5602193E0,1.0102537E0],"tree_param":{"num_deleted":"0","num_feature":"33","num_nodes":"3","size_leaf_vector":"1"}},{"base_weights":[3.5567912E-3,3.5787436E-1,-9.5985925E-1,2.3077233E-1,5.189733E-1,-1.0817949E0,2.2548646E-2,2.5905436E-1,-4.3931242E-2,2.6687343E-2,-4.737619E-3,1.844873E-2,-1.1436043E0,2.2540309E-2,7.206815E-3,-5.8738638E-2,-1.2891887E-3],"categories":[],"categories_nodes":[],"categories_segments":[],"categories_sizes":[],"default_left":[0,0,0,0,0,0,0,0,0,0,0,0,0,0,0,0,0],"id":32,"left_children":[1,3,5,7,9,11,-1,13,-1,-1,-1,-1,15,-1,-1,-1,-1],"loss_changes":[6.851909E1,2.8850288E0,9.772903E0,2.857851E0,6.301098E-1,4.9031563E0,0E0,1.7533679E0,0E0,0E0,0E0,0E0,1.6481819E0,0E0,0E0,0E0,0E0],"parents":[2147483647,0,0,1,1,2,2,3,3,4,4,5,5,7,7,12,12],"right_children":[2,4,6,8,10,12,-1,14,-1,-1,-1,-1,16,-1,-1,-1,-1],"split_conditions":[3.53359E-1,1.538E-3,1.521928E0,1.39233E-1,1E-1,8E-1,2.2548646E-2,1.174E-3,-4.3931242E-2,2.6687343E-2,-4.737619E-3,1.844873E-2,1.0514874E7,2.2540309E-2,7.206815E-3,-5.8738638E-2,-1.2891887E-3],"split_indices":[6,19,6,9,10,16,0,19,0,0,0,0,21,0,0,0,0],"split_type":[0,0,0,0,0,0,0,0,0,0,0,0,0,0,0,0,0],"sum_hessian":[1.9872034E2,1.4574713E2,5.2973198E1,8.282964E1,6.2917496E1,4.8973713E1,3.9994853E0,8.151798E1,1.3116596E0,6.1565807E1,1.3516876E0,1.7981671E0,4.7175545E1,2.945187E1,5.2066113E1,4.5846252E1,1.3292943E0],"tree_param":{"num_deleted":"0","num_feature":"33","num_nodes":"17","size_leaf_vector":"1"}},{"base_weights":[-1.44625455E-2,-3.6306894E-1,9.278358E-1,-2.2445166E-1,-4.9810132E-1,1.1419863E0,-2.451543E-2,-2.946295E-1,2.5528866E-1,-5.122802E-1,5.462277E-3,2.6212996E-3,5.8994412E-2,-2.0499868E-2,-4.3920246E-3,4.3132495E-2,-3.221099E-3,-1.9480452E-2,-2.7027655E-2],"categories":[],"categories_nodes":[],"categories_segments":[],"categories_sizes":[],"default_left":[0,0,0,0,0,0,0,0,0,0,0,0,0,0,0,0,0,0,0],"id":33,"left_children":[1,3,5,7,9,11,-1,13,15,17,-1,-1,-1,-1,-1,-1,-1,-1,-1],"loss_changes":[5.9381397E1,2.357523E0,1.5386665E1,2.3281517E0,6.243706E-1,1.702179E0,0E0,1.3677773E0,1.8178542E0,1.3710022E-2,0E0,0E0,0E0,0E0,0E0,0E0,0E0,0E0,0E0],"parents":[2147483647,0,0,1,1,2,2,3,3,4,4,5,5,7,7,8,8,9,9],"right_children":[2,4,6,8,10,12,-1,14,16,18,-1,-1,-1,-1,-1,-1,-1,-1,-1],"split_conditions":[3.53359E-1,1.147E-3,2.5E-1,1.013423E0,1.2766E-1,1.2E1,-2.451543E-2,1.07E-3,1.014545E0,6.336667E2,5.462277E-3,2.6212996E-3,5.8994412E-2,-2.0499868E-2,-4.3920246E-3,4.3132495E-2,-3.221099E-3,-1.9480452E-2,-2.7027655E-2],"split_indices":[6,20,8,25,13,0,0,20,25,23,0,0,0,0,0,0,0,0,0],"split_type":[0,0,0,0,0,0,0,0,0,0,0,0,0,0,0,0,0,0,0],"sum_hessian":[1.7874461E2,1.3092366E2,4.7820942E1,6.591793E1,6.500574E1,4.1716213E1,6.1047287E0,5.784242E1,8.075507E0,6.3675716E1,1.3300192E0,1.482495E0,4.023372E1,3.6497654E1,2.1344765E1,2.1992755E0,5.8762317E0,1.4695358E1,4.8980362E1],"tree_param":{"num_deleted":"0","num_feature":"33","num_nodes":"19","size_leaf_vector":"1"}},{"base_weights":[-3.6999276E-3,-1.2864053E-1,6.1444946E-2,1.1259141E-1,-2.2409184E-2,-3.3201045E-1,9.5552164E-1,1.0632607E-2,-2.19317E-2,-1.50741935E-2,8.299648E-2],"categories":[],"categories_nodes":[],"categories_segments":[],"categories_sizes":[],"default_left":[0,0,0,0,0,0,0,0,0,0,0],"id":34,"left_children":[1,3,-1,5,-1,7,9,-1,-1,-1,-1],"loss_changes":[3.374084E0,1.581826E0,0E0,4.8592277E0,0E0,5.971586E-1,4.4343567E0,0E0,0E0,0E0,0E0],"parents":[2147483647,0,0,1,1,3,3,5,5,6,6],"right_children":[2,4,-1,6,-1,8,10,-1,-1,-1,-1],"split_conditions":[5.7E1,1.619E-3,6.1444946E-2,1.2E-3,-2.2409184E-2,2.9E1,6.331667E2,1.0632607E-2,-2.19317E-2,-1.50741935E-2,8.299648E-2],"split_indices":[0,20,0,20,0,0,23,0,0,0,0],"split_type":[0,0,0,0,0,0,0,0,0,0,0],"sum_hessian":[1.9882877E1,1.886617E1,1.0167075E0,1.1119444E1,7.746726E0,7.6765738E0,3.44287E0,1.0939509E0,6.582623E0,1.4418727E0,2.000997E0],"tree_param":{"num_deleted":"0","num_feature":"33","num_nodes":"11","size_leaf_vector":"1"}},{"base_weights":[-3.893966E-2,-2.1258593E-2,6.1522186E-2],"categories":[],"categories_nodes":[],"categories_segments":[],"categories_sizes":[],"default_left":[0,0,0],"id":35,"left_children":[1,-1,-1],"loss_changes":[4.229628E0,0E0,0E0],"parents":[2147483647,0,0],"right_children":[2,-1,-1],"split_conditions":[1.110429E0,-2.1258593E-2,6.1522186E-2],"split_indices":[25,0,0],"split_type":[0,0,0],"sum_hessian":[6.559972E0,5.539529E0,1.0204427E0],"tree_param":{"num_deleted":"0","num_feature":"33","num_nodes":"3","size_leaf_vector":"1"}},{"base_weights":[-5.0935876E-3,2.8578457E-1,-9.778255E-1,1.6612679E-1,5.0895685E-1,2.1414375E-2,-5.416314E-2,2.532217E-1,-7.597821E-1,5.2689797E-1,-1.0459683E-2,1.4002994E-2,-5.033821E-2,-4.9917858E-2,2.619388E-3,1.2668011E-2,2.7207598E-2],"categories":[],"categories_nodes":[],"categories_segments":[],"categories_sizes":[],"default_left":[0,0,0,0,0,0,0,0,0,0,0,0,0,0,0,0,0],"id":36,"left_children":[1,3,5,7,9,-1,-1,11,13,15,-1,-1,-1,-1,-1,-1,-1],"loss_changes":[5.6788067E1,4.041665E0,7.3133774E0,8.423464E0,7.988434E-1,0E0,0E0,3.4621153E0,1.8011279E0,1.0956955E-1,0E0,0E0,0E0,0E0,0E0,0E0,0E0],"parents":[2147483647,0,0,1,1,2,2,3,3,4,4,7,7,8,8,9,9],"right_children":[2,4,6,8,10,-1,-1,12,14,16,-1,-1,-1,-1,-1,-1,-1],"split_conditions":[5.2632E-2,4.546564E0,1.39233E-1,4.001055E0,4.06825E3,2.1414375E-2,-5.416314E-2,4E0,4.192696E0,1.538E-3,-1.0459683E-2,1.4002994E-2,-5.033821E-2,-4.9917858E-2,2.619388E-3,1.2668011E-2,2.7207598E-2],"split_indices":[12,26,9,26,21,0,0,2,26,19,0,0,0,0,0,0,0],"split_type":[0,0,0,0,0,0,0,0,0,0,0,0,0,0,0,0,0],"sum_hessian":[1.9871487E2,1.535151E2,4.5199757E1,1.0106936E2,5.244575E1,2.9392939E0,4.226046E1,9.3043785E1,8.025576E0,5.1427284E1,1.0184665E0,9.186476E1,1.1790287E0,6.026147E0,1.9994286E0,3.9820187E0,4.7445267E1],"tree_param":{"num_deleted":"0","num_feature":"33","num_nodes":"17","size_leaf_vector":"1"}},{"base_weights":[-9.648328E-3,-3.1462014E-1,9.637733E-1,-3.7245876E-1,2.1948968E-1,5.55028E-2,-2.2874227E-2,-2.4318746E-1,-4.9360514E-1,5.1476337E-2,-3.91438E-1,-4.5944615E-3,-1.8274061E-2,-2.5424568E-2,8.528465E-3,6.876686E-3,-2.4795786E-2],"categories":[],"categories_nodes":[],"categories_segments":[],"categories_sizes":[],"default_left":[0,0,0,0,0,0,0,0,0,0,0,0,0,0,0,0,0],"id":37,"left_children":[1,3,5,7,9,-1,-1,11,13,-1,15,-1,-1,-1,-1,-1,-1],"loss_changes":[5.356766E1,4.325515E0,9.45792E0,1.8269329E0,7.3568754E0,0E0,0E0,1.115722E0,7.116585E-1,0E0,5.509473E-1,0E0,0E0,0E0,0E0,0E0,0E0],"parents":[2147483647,0,0,1,1,2,2,3,3,4,4,7,7,8,8,10,10],"right_children":[2,4,6,8,10,-1,-1,12,14,-1,16,-1,-1,-1,-1,-1,-1],"split_conditions":[5.2632E-2,3.53359E-1,2E1,1.147E-3,4.39497E-1,5.55028E-2,-2.2874227E-2,1.459107E0,7.3529E-2,5.1476337E-2,6E0,-4.5944615E-3,-1.8274061E-2,-2.5424568E-2,8.528465E-3,6.876686E-3,-2.4795786E-2],"split_indices":[12,6,0,20,6,0,0,27,13,0,0,0,0,0,0,0,0],"split_type":[0,0,0,0,0,0,0,0,0,0,0,0,0,0,0,0,0],"sum_hessian":[1.7842238E2,1.363735E2,4.2048866E1,1.2332169E2,1.3051818E1,3.8323402E1,3.7254653E0,6.1115135E1,6.220656E1,5.3168936E0,7.7349243E0,2.8100906E1,3.301423E1,6.107214E1,1.1344159E0,1.2235726E0,6.511352E0],"tree_param":{"num_deleted":"0","num_feature":"33","num_nodes":"17","size_leaf_vector":"1"}},{"base_weights":[-3.637758E-2,9.0278804E-1,-2.4588877E-1,-1.5105332E-2,8.739478E-2,7.5564064E-2,-3.8282293E-1,-2.013827E-2,5.477185E-2,1.1619131E-2,-2.3014762E-2],"categories":[],"categories_nodes":[],"categories_segments":[],"categories_sizes":[],"default_left":[0,0,0,0,0,0,0,0,0,0,0],"id":38,"left_children":[1,3,5,-1,-1,7,9,-1,-1,-1,-1],"loss_changes":[4.1977773E0,4.4987307E0,7.9071236E-1,0E0,0E0,3.3706844E0,6.932572E-1,0E0,0E0,0E0,0E0],"parents":[2147483647,0,0,1,1,2,2,5,5,6,6],"right_children":[2,4,6,-1,-1,8,10,-1,-1,-1,-1],"split_conditions":[1.19105E0,1.239E-3,3.305E2,-1.5105332E-2,8.739478E-2,3.0283334E2,1.288133E0,-2.013827E-2,5.477185E-2,1.1619131E-2,-2.3014762E-2],"split_indices":[26,19,22,0,0,21,27,0,0,0,0],"split_type":[0,0,0,0,0,0,0,0,0,0,0],"sum_hessian":[1.9205715E1,2.8994536E0,1.6306261E1,1.4601698E0,1.439284E0,5.0050597E0,1.1301201E1,3.8189983E0,1.1860611E0,1.0403391E0,1.0260861E1],"tree_param":{"num_deleted":"0","num_feature":"33","num_nodes":"11","size_leaf_vector":"1"}},{"base_weights":[-2.7148305E-2,-2.1158041E-2,6.231978E-2],"categories":[],"categories_nodes":[],"categories_segments":[],"categories_sizes":[],"default_left":[0,0,0],"id":39,"left_children":[1,-1,-1],"loss_changes":[4.245158E0,0E0,0E0],"parents":[2147483647,0,0],"right_children":[2,-1,-1],"split_conditions":[3.125E-1,-2.1158041E-2,6.231978E-2],"split_indices":[18,0,0],"split_type":[0,0,0],"sum_hessian":[6.3714905E0,5.3695436E0,1.0019469E0],"tree_param":{"num_deleted":"0","num_feature":"33","num_nodes":"3","size_leaf_vector":"1"}},{"base_weights":[2.2463435E-3,3.4782046E-1,-8.5800844E-1,2.7272198E-1,2.6922677E-2,-9.914565E-1,2.3146858E-2,2.6480634E-2,2.165575E-1,1.4863729E-2,-1.0257021E0,1.2112434E-2,-2.9073507E-2,-5.265906E-2,-6.502253E-4],"categories":[],"categories_nodes":[],"categories_segments":[],"categories_sizes":[],"default_left":[0,0,0,0,0,0,0,0,0,0,0,0,0,0,0],"id":40,"left_children":[1,3,5,7,-1,9,-1,-1,11,-1,13,-1,-1,-1,-1],"loss_changes":[5.749428E1,1.8283596E0,1.0229443E1,1.3426104E0,0E0,2.54068E0,0E0,0E0,1.8748398E0,0E0,1.3658066E0,0E0,0E0,0E0,0E0],"parents":[2147483647,0,0,1,1,2,2,3,3,5,5,8,8,10,10],"right_children":[2,4,6,8,-1,10,-1,-1,12,-1,14,-1,-1,-1,-1],"split_conditions":[3.53359E-1,9.16835E-1,8.11278E-1,1.276878E0,2.6922677E-2,5E-1,2.3146858E-2,2.6480634E-2,3.09543E-1,1.4863729E-2,1.0514874E7,1.2112434E-2,-2.9073507E-2,-5.265906E-2,-6.502253E-4],"split_indices":[6,24,5,27,0,16,0,0,9,0,21,0,0,0,0],"split_type":[0,0,0,0,0,0,0,0,0,0,0,0,0,0,0],"sum_hessian":[1.9139609E2,1.3696954E2,5.4426548E1,1.0000423E2,3.696532E1,4.965918E1,4.767367E0,1.642917E1,8.357506E1,1.0866281E0,4.857255E1,8.1643135E1,1.9319227E0,4.7250458E1,1.3220936E0],"tree_param":{"num_deleted":"0","num_feature":"33","num_nodes":"15","size_leaf_vector":"1"}},{"base_weights":[-1.8268628E-2,-3.2443184E-1,9.14453E-1,-3.7239286E-1,1.5610838E-1,5.159768E-2,-2.1894412E-2,-2.227156E-1,-4.942611E-1,4.707595E-2,-3.80265E-1,-1.763627E-2,2.064444E-3,-2.5433442E-2,8.474515E-3,-2.4442513E-2,6.0565476E-3],"categories":[],"categories_nodes":[],"categories_segments":[],"categories_sizes":[],"default_left":[0,0,0,0,0,0,0,0,0,0,0,0,0,0,0,0,0],"id":41,"left_children":[1,3,5,7,9,-1,-1,11,13,-1,15,-1,-1,-1,-1,-1,-1],"loss_changes":[4.992706E1,3.0908003E0,7.3183136E0,2.0777225E0,5.685385E0,0E0,0E0,1.9245894E0,7.106018E-1,0E0,5.071019E-1,0E0,0E0,0E0,0E0,0E0,0E0],"parents":[2147483647,0,0,1,1,2,2,3,3,4,4,7,7,8,8,10,10],"right_children":[2,4,6,8,10,-1,-1,12,14,-1,16,-1,-1,-1,-1,-1,-1],"split_conditions":[5.2632E-2,3.53359E-1,2E1,1.129E-3,4.39497E-1,5.159768E-2,-2.1894412E-2,1.07E-3,1.2766E-1,4.707595E-2,1.9849546E3,-1.763627E-2,2.064444E-3,-2.5433442E-2,8.474515E-3,-2.4442513E-2,6.0565476E-3],"split_indices":[12,6,0,20,6,0,0,20,13,0,25,0,0,0,0,0,0],"split_type":[0,0,0,0,0,0,0,0,0,0,0,0,0,0,0,0,0],"sum_hessian":[1.727971E2,1.3058508E2,4.2212017E1,1.1893924E2,1.1645848E1,3.905552E1,3.1564956E0,5.4648296E1,6.429094E1,4.4193134E0,7.2265353E0,3.6391254E1,1.825704E1,6.3153736E1,1.1372039E0,5.9606776E0,1.2658577E0],"tree_param":{"num_deleted":"0","num_feature":"33","num_nodes":"17","size_leaf_vector":"1"}},{"base_weights":[6.2444065E-2,3.8390478E-1,-2.2244575E-2,-2.164079E-2,1.1395606E0,1.7784048E0,-1.6734695E-2,1.4720915E-1,-1.9666016E-4],"categories":[],"categories_nodes":[],"categories_segments":[],"categories_sizes":[],"default_left":[0,0,0,0,0,0,0,0,0],"id":42,"left_children":[1,3,-1,-1,5,7,-1,-1,-1],"loss_changes":[3.4659712E0,8.457596E0,0E0,0E0,7.16751E0,1.0456664E1,0E0,0E0,0E0],"parents":[2147483647,0,0,1,1,4,4,5,5],"right_children":[2,4,-1,-1,6,8,-1,-1,-1],"split_conditions":[1.619E-3,1.243E-3,-2.2244575E-2,-2.164079E-2,8.427958E3,9.16793E-1,-1.6734695E-2,1.4720915E-1,-1.9666016E-4],"split_indices":[20,19,0,0,22,24,0,0,0],"split_type":[0,0,0,0,0,0,0,0,0],"sum_hessian":[1.9204836E1,1.1904887E1,7.2999477E0,5.9265943E0,5.9782934E0,4.026965E0,1.9513282E0,2.0404785E0,1.9864866E0],"tree_param":{"num_deleted":"0","num_feature":"33","num_nodes":"9","size_leaf_vector":"1"}},{"base_weights":[-2.260442E-2,-2.1084728E-2,6.054551E-2],"categories":[],"categories_nodes":[],"categories_segments":[],"categories_sizes":[],"default_left":[0,0,0],"id":43,"left_children":[1,-1,-1],"loss_changes":[4.105339E0,0E0,0E0],"parents":[2147483647,0,0],"right_children":[2,-1,-1],"split_conditions":[2E-1,-2.1084728E-2,6.054551E-2],"split_indices":[8,0,0],"split_type":[0,0,0],"sum_hessian":[6.302103E0,5.2588086E0,1.0432941E0],"tree_param":{"num_deleted":"0","num_feature":"33","num_nodes":"3","size_leaf_vector":"1"}},{"base_weights":[-1.148612E-2,3.1546813E-1,-8.223744E-1,1.683519E-1,4.8159248E-1,-9.3850464E-1,2.261416E-2,2.0278679E-1,-5.2486755E-2,4.9591404E-1,-6.688765E-3,-9.705567E-1,1.46069545E-2,1.2095335E-2,-3.1559426E-2,1.6092196E-2,2.7023016E-2,-4.982483E-2,-4.8209057E-4],"categories":[],"categories_nodes":[],"categories_segments":[],"categories_sizes":[],"default_left":[0,0,0,0,0,0,0,0,0,0,0,0,0,0,0,0,0,0,0],"id":44,"left_children":[1,3,5,7,9,11,-1,13,-1,15,-1,17,-1,-1,-1,-1,-1,-1,-1],"loss_changes":[5.07974E1,3.2566195E0,8.573505E0,3.3153431E0,6.2688255E-1,2.2865257E0,0E0,2.5268242E0,0E0,3.0967903E-1,0E0,1.2297668E0,0E0,0E0,0E0,0E0,0E0,0E0,0E0],"parents":[2147483647,0,0,1,1,2,2,3,3,4,4,5,5,7,7,9,9,11,11],"right_children":[2,4,6,8,10,12,-1,14,-1,16,-1,18,-1,-1,-1,-1,-1,-1,-1],"split_conditions":[3.53359E-1,1.414E-3,8.11278E-1,1.403E-3,5.598201E0,2.1E-3,2.261416E-2,1.021898E0,-5.2486755E-2,6.336667E2,-6.688765E-3,1.0514874E7,1.46069545E-2,1.2095335E-2,-3.1559426E-2,1.6092196E-2,2.7023016E-2,-4.982483E-2,-4.8209057E-4],"split_indices":[6,19,5,19,27,20,0,25,0,23,0,21,0,0,0,0,0,0,0],"split_type":[0,0,0,0,0,0,0,0,0,0,0,0,0,0,0,0,0,0,0],"sum_hessian":[1.8962059E2,1.3556932E2,5.4051273E1,7.2965775E1,6.2603542E1,4.9779713E1,4.2715616E0,7.177037E1,1.1954027E0,6.1369396E1,1.2341448E0,4.872209E1,1.0576202E0,6.923275E1,2.5376163E0,1.4180848E1,4.718855E1,4.7405354E1,1.3167386E0],"tree_param":{"num_deleted":"0","num_feature":"33","num_nodes":"19","size_leaf_vector":"1"}},{"base_weights":[8.980606E-3,-3.3882958E-1,7.772705E-1,-2.032547E-1,-4.8321512E-1,9.5736843E-1,-2.4898335E-2,-2.9831624E-1,2.581723E-1,-4.9958235E-1,8.9919185E-3,1.4928631E-4,4.9620986E-2,-2.2428973E-2,-1.3589497E-3,3.32261E-2,-1.4018239E-2,-1.8213583E-2,-2.6601056E-2],"categories":[],"categories_nodes":[],"categories_segments":[],"categories_sizes":[],"default_left":[0,0,0,0,0,0,0,0,0,0,0,0,0,0,0,0,0,0,0],"id":45,"left_children":[1,3,5,7,9,11,-1,13,15,17,-1,-1,-1,-1,-1,-1,-1,-1,-1],"loss_changes":[4.6281498E1,2.2359438E0,1.2871849E1,2.850233E0,7.0862675E-1,1.590477E0,0E0,2.142528E0,2.6670344E0,5.1605225E-2,0E0,0E0,0E0,0E0,0E0,0E0,0E0,0E0,0E0],"parents":[2147483647,0,0,1,1,2,2,3,3,4,4,5,5,7,7,8,8,9,9],"right_children":[2,4,6,8,10,12,-1,14,16,18,-1,-1,-1,-1,-1,-1,-1,-1,-1],"split_conditions":[3.53359E-1,1.147E-3,2.5E-1,1.011407E0,7.3529E-2,1.2E1,-2.4898335E-2,1.074E-3,8.685167E3,6.336667E2,8.9919185E-3,1.4928631E-4,4.9620986E-2,-2.2428973E-2,-1.3589497E-3,3.32261E-2,-1.4018239E-2,-1.8213583E-2,-2.6601056E-2],"split_indices":[6,20,8,25,10,0,0,20,22,23,0,0,0,0,0,0,0,0,0],"split_type":[0,0,0,0,0,0,0,0,0,0,0,0,0,0,0,0,0,0,0],"sum_hessian":[1.712113E2,1.1824152E2,5.296978E1,6.2223106E1,5.6018414E1,4.663318E1,6.336603E0,5.188702E1,1.0336087E1,5.490954E1,1.1088774E0,1.6904504E0,4.4942726E1,3.2964043E1,1.8922977E1,5.7577066E0,4.57838E0,1.2983094E1,4.192644E1],"tree_param":{"num_deleted":"0","num_feature":"33","num_nodes":"19","size_leaf_vector":"1"}},{"base_weights":[1.3026513E-1,-4.9225446E-2,8.6688355E-2,2.3594461E-1,-3.473802E-1,-2.1218015E-2,1.0421392E0,-2.2296442E-2,1.20294485E-2,8.282124E-2,-1.4637156E-2],"categories":[],"categories_nodes":[],"categories_segments":[],"categories_sizes":[],"default_left":[0,0,0,0,0,0,0,0,0,0,0],"id":46,"left_children":[1,3,-1,5,7,-1,9,-1,-1,-1,-1],"loss_changes":[5.7296653E0,1.6642076E0,0E0,5.8226748E0,6.5786374E-1,0E0,4.453906E0,0E0,0E0,0E0,0E0],"parents":[2147483647,0,0,1,1,3,3,4,4,6,6],"right_children":[2,4,-1,6,8,-1,10,-1,-1,-1,-1],"split_conditions":[4E0,1.538E-3,8.6688355E-2,1.243E-3,1.896552E0,-2.1218015E-2,8.427958E3,-2.2296442E-2,1.20294485E-2,8.282124E-2,-1.4637156E-2],"split_indices":[2,19,0,19,25,0,22,0,0,0,0],"split_type":[0,0,0,0,0,0,0,0,0,0,0],"sum_hessian":[1.8611032E1,1.7609217E1,1.0018148E0,9.1072445E0,8.501972E0,5.2669954E0,3.8402495E0,7.4884257E0,1.0135463E0,2.4650204E0,1.3752291E0],"tree_param":{"num_deleted":"0","num_feature":"33","num_nodes":"11","size_leaf_vector":"1"}},{"base_weights":[-1.5624194E-1,-2.1065151E-2,3.7316363E-2],"categories":[],"categories_nodes":[],"categories_segments":[],"categories_sizes":[],"default_left":[0,0,0],"id":47,"left_children":[1,-1,-1],"loss_changes":[2.044247E0,0E0,0E0],"parents":[2147483647,0,0],"right_children":[2,-1,-1],"split_conditions":[3E0,-2.1065151E-2,3.7316363E-2],"split_indices":[2,0,0],"split_type":[0,0,0],"sum_hessian":[6.23059E0,5.228371E0,1.0022185E0],"tree_param":{"num_deleted":"0","num_feature":"33","num_nodes":"3","size_leaf_vector":"1"}},{"base_weights":[6.728718E-3,3.2695994E-1,-8.1168884E-1,2.0145018E-1,5.022333E-1,-9.149215E-1,2.1765132E-2,2.2921185E-1,-3.81058E-2,2.5982294E-2,-6.986517E-3,-9.5862913E-1,1.6715892E-2,1.2528981E-2,-3.2161612E-2,-4.8833072E-2,-1.2347901E-2],"categories":[],"categories_nodes":[],"categories_segments":[],"categories_sizes":[],"default_left":[0,0,0,0,0,0,0,0,0,0,0,0,0,0,0,0,0],"id":48,"left_children":[1,3,5,7,9,11,-1,13,-1,-1,-1,15,-1,-1,-1,-1,-1],"loss_changes":[4.786281E1,2.7861032E0,7.0102882E0,2.2652535E0,6.773224E-1,2.928173E0,0E0,1.5916271E0,0E0,0E0,0E0,3.5429764E-1,0E0,0E0,0E0,0E0,0E0],"parents":[2147483647,0,0,1,1,2,2,3,3,4,4,5,5,7,7,11,11],"right_children":[2,4,6,8,10,12,-1,14,-1,-1,-1,16,-1,-1,-1,-1,-1],"split_conditions":[3.53359E-1,1.538E-3,8.11278E-1,1.39233E-1,5.598201E0,6.625253E1,2.1765132E-2,1.1532111E4,-3.81058E-2,2.5982294E-2,-6.986517E-3,3.2975E2,1.6715892E-2,1.2528981E-2,-3.2161612E-2,-4.8833072E-2,-1.2347901E-2],"split_indices":[6,19,5,9,27,19,0,22,0,0,0,22,0,0,0,0,0],"split_type":[0,0,0,0,0,0,0,0,0,0,0,0,0,0,0,0,0],"sum_hessian":[1.8061212E2,1.3024876E2,5.036336E1,7.715149E1,5.3097267E1,4.675872E1,3.6046426E0,7.573168E1,1.419812E0,5.18806E1,1.216666E0,4.5402824E1,1.3558958E0,7.461696E1,1.1147234E0,4.391769E1,1.4851332E0],"tree_param":{"num_deleted":"0","num_feature":"33","num_nodes":"17","size_leaf_vector":"1"}},{"base_weights":[5.0853156E-3,-3.2573178E-1,7.4393344E-1,-1.8159427E-1,-4.8020107E-1,9.1377133E-1,-2.478475E-2,-2.718887E-1,2.3697966E-1,-4.9681285E-1,9.170475E-3,3.494037E-4,4.737141E-2,-1.5173112E-2,2.4369447E-2,3.5334896E-2,-9.38147E-3,-1.7737515E-2,-2.6494896E-2],"categories":[],"categories_nodes":[],"categories_segments":[],"categories_sizes":[],"default_left":[0,0,0,0,0,0,0,0,0,0,0,0,0,0,0,0,0,0,0],"id":49,"left_children":[1,3,5,7,9,11,-1,13,15,17,-1,-1,-1,-1,-1,-1,-1,-1,-1],"loss_changes":[4.1533543E1,2.5262947E0,1.1516758E1,2.420189E0,7.090273E-1,1.4146729E0,0E0,1.3881695E0,2.4450297E0,7.030678E-2,0E0,0E0,0E0,0E0,0E0,0E0,0E0,0E0,0E0],"parents":[2147483647,0,0,1,1,2,2,3,3,4,4,5,5,7,7,8,8,9,9],"right_children":[2,4,6,8,10,12,-1,14,16,18,-1,-1,-1,-1,-1,-1,-1,-1,-1],"split_conditions":[3.53359E-1,1.147E-3,2.5E-1,1.011407E0,7.3529E-2,1.2E1,-2.478475E-2,1.14E-3,7.899146E3,6.336667E2,9.170475E-3,3.494037E-4,4.737141E-2,-1.5173112E-2,2.4369447E-2,3.5334896E-2,-9.38147E-3,-1.7737515E-2,-2.6494896E-2],"split_indices":[6,20,8,25,10,0,0,20,22,23,0,0,0,0,0,0,0,0,0],"split_type":[0,0,0,0,0,0,0,0,0,0,0,0,0,0,0,0,0,0,0],"sum_hessian":[1.6793304E2,1.1638233E2,5.1550713E1,6.1330017E1,5.5052315E1,4.557015E1,5.980565E0,5.0735775E1,1.0594242E1,5.3953083E1,1.0992286E0,1.674101E0,4.3896046E1,4.9286587E1,1.449188E0,4.7145176E0,5.879724E0,1.2405972E1,4.154711E1],"tree_param":{"num_deleted":"0","num_feature":"33","num_nodes":"19","size_leaf_vector":"1"}},{"base_weights":[1.9919544E-2,-1.6259411E-1,8.661911E-2,-3.1430575E-1,1.4670067E-1,-4.9593665E-2,-2.2343164E-2,7.692638E-2,-2.0827847E-2,-1.9617286E-2,3.5593916E-2],"categories":[],"categories_nodes":[],"categories_segments":[],"categories_sizes":[],"default_left":[0,0,0,0,0,0,0,0,0,0,0],"id":50,"left_children":[1,3,-1,5,7,9,-1,-1,-1,-1,-1],"loss_changes":[6.5016804E0,9.328909E-1,0E0,4.3391144E-1,6.0509887E0,1.7047834E0,0E0,0E0,0E0,0E0,0E0],"parents":[2147483647,0,0,1,1,3,3,4,4,5,5],"right_children":[2,4,-1,6,8,10,-1,-1,-1,-1,-1],"split_conditions":[3.16667E-1,8.510893E3,8.661911E-2,1.47E-3,8.427958E3,4.810029E0,-2.2343164E-2,7.692638E-2,-2.0827847E-2,-1.9617286E-2,3.5593916E-2],"split_indices":[12,23,0,19,22,27,0,0,0,0,0],"split_type":[0,0,0,0,0,0,0,0,0,0,0],"sum_hessian":[1.8900969E1,1.7898415E1,1.0025543E0,1.1997394E1,5.9010215E0,4.4616957E0,7.535698E0,1.2012397E0,4.6997814E0,3.4110672E0,1.0506283E0],"tree_param":{"num_deleted":"0","num_feature":"33","num_nodes":"11","size_leaf_vector":"1"}},{"base_weights":[1.3457292E-1,-2.094545E-2,8.628886E-2],"categories":[],"categories_nodes":[],"categories_segments":[],"categories_sizes":[],"default_left":[0,0,0],"id":51,"left_children":[1,-1,-1],"loss_changes":[6.948712E0,0E0,0E0],"parents":[2147483647,0,0],"right_children":[2,-1,-1],"split_conditions":[5.556E-3,-2.094545E-2,8.628886E-2],"split_indices":[29,0,0],"split_type":[0,0,0],"sum_hessian":[6.0690913E0,5.049438E0,1.0196534E0],"tree_param":{"num_deleted":"0","num_feature":"33","num_nodes":"3","size_leaf_vector":"1"}},{"base_weights":[-9.762268E-3,3.068182E-1,-7.674577E-1,1.7960522E-1,4.9721816E-1,-8.892139E-1,3.1353024E-1,2.0602246E-1,-3.667217E-2,3.4566507E-1,2.6618257E-2,-1.6863492E-3,-4.5792397E-2,2.2478858E-2,-9.104202E-3,1.5863916E-2,-8.0093567E-4,5.4530445E-3,2.391581E-2],"categories":[],"categories_nodes":[],"categories_segments":[],"categories_sizes":[],"default_left":[0,0,0,0,0,0,0,0,0,0,0,0,0,0,0,0,0,0,0],"id":52,"left_children":[1,3,5,7,9,11,13,15,-1,17,-1,-1,-1,-1,-1,-1,-1,-1,-1],"loss_changes":[4.3952694E1,3.0415163E0,7.3853226E0,2.0578666E0,8.8736534E-2,1.0807686E0,5.0026023E-1,1.9223156E0,0E0,3.3988142E-1,0E0,0E0,0E0,0E0,0E0,0E0,0E0,0E0,0E0],"parents":[2147483647,0,0,1,1,2,2,3,3,4,4,5,5,6,6,7,7,9,9],"right_children":[2,4,6,8,10,12,14,16,-1,18,-1,-1,-1,-1,-1,-1,-1,-1,-1],"split_conditions":[3.53359E-1,1.538E-3,5.91673E-1,1.39233E-1,6.336667E2,1.2E1,3.572679E0,1.237E-3,-3.667217E-2,1.754E-3,2.6618257E-2,-1.6863492E-3,-4.5792397E-2,2.2478858E-2,-9.104202E-3,1.5863916E-2,-8.0093567E-4,5.4530445E-3,2.391581E-2],"split_indices":[6,19,5,9,23,0,26,19,0,19,0,0,0,0,0,0,0,0,0],"split_type":[0,0,0,0,0,0,0,0,0,0,0,0,0,0,0,0,0,0,0],"sum_hessian":[1.8125264E2,1.2825865E2,5.299399E1,7.8052376E1,5.020627E1,4.778875E1,5.2052402E0,7.6610176E1,1.4422047E0,1.1491218E1,3.871505E1,1.5113207E0,4.6277428E1,4.1570206E0,1.0482198E0,5.0751656E1,2.5858519E1,4.782694E0,6.708524E0],"tree_param":{"num_deleted":"0","num_feature":"33","num_nodes":"19","size_leaf_vector":"1"}},{"base_weights":[-1.6545765E-2,-3.4281135E-1,6.9352144E-1,-2.1392551E-1,-4.7717202E-1,8.710951E-1,-2.48975E-2,-3.456988E-1,-1.9377736E-2,-4.9398202E-1,7.0709498E-3,-4.7691618E-4,4.5295365E-2,-2.1680063E-2,8.4427055E-3,4.503424E-2,-7.1305716E-3,-1.754506E-2,-2.6385156E-2],"categories":[],"categories_nodes":[],"categories_segments":[],"categories_sizes":[],"default_left":[0,0,0,0,0,0,0,0,0,0,0,0,0,0,0,0,0,0,0],"id":53,"left_children":[1,3,5,7,9,11,-1,13,15,17,-1,-1,-1,-1,-1,-1,-1,-1,-1],"loss_changes":[3.849495E1,1.8688965E0,1.1503349E1,1.5290184E0,6.4085865E-1,1.4157028E0,0E0,1.6858912E0,2.9913166E0,7.383537E-2,0E0,0E0,0E0,0E0,0E0,0E0,0E0,0E0,0E0],"parents":[2147483647,0,0,1,1,2,2,3,3,4,4,5,5,7,7,8,8,9,9],"right_children":[2,4,6,8,10,12,-1,14,16,18,-1,-1,-1,-1,-1,-1,-1,-1,-1],"split_conditions":[3.53359E-1,1.147E-3,2.5E-1,1.068E-3,5.598201E0,9.11765E-1,-2.48975E-2,1.013423E0,8.188724E3,6.336667E2,7.0709498E-3,-4.7691618E-4,4.5295365E-2,-2.1680063E-2,8.4427055E-3,4.503424E-2,-7.1305716E-3,-1.754506E-2,-2.6385156E-2],"split_indices":[6,20,8,20,27,16,0,25,22,23,0,0,0,0,0,0,0,0,0],"split_type":[0,0,0,0,0,0,0,0,0,0,0,0,0,0,0,0,0,0,0],"sum_hessian":[1.6413629E2,1.1281613E2,5.132016E1,5.890425E1,5.3911877E1,4.489763E1,6.4225307E0,3.4654644E1,2.4249607E1,5.2681713E1,1.230166E0,1.734953E0,4.3162678E1,2.9732658E1,4.9219866E0,2.119166E0,2.2130442E1,1.222333E1,4.045838E1],"tree_param":{"num_deleted":"0","num_feature":"33","num_nodes":"19","size_leaf_vector":"1"}},{"base_weights":[8.596067E-2,-9.787442E-2,8.6295806E-2,1.2513189E-1,-2.1898914E-2,-3.1860727E-1,8.4332097E-1,1.1895147E-2,-2.1672893E-2,-1.5163444E-2,7.1636E-2],"categories":[],"categories_nodes":[],"categories_segments":[],"categories_sizes":[],"default_left":[0,0,0,0,0,0,0,0,0,0,0],"id":54,"left_children":[1,3,-1,5,-1,7,9,-1,-1,-1,-1],"loss_changes":[6.005964E0,1.4470183E0,0E0,4.0497065E0,0E0,6.1822474E-1,3.681829E0,0E0,0E0,0E0,0E0],"parents":[2147483647,0,0,1,1,3,3,5,5,6,6],"right_children":[2,4,-1,6,-1,8,10,-1,-1,-1,-1],"split_conditions":[8.1E1,1.619E-3,8.6295806E-2,1.182E-3,-2.1898914E-2,3.6E1,6.331667E2,1.1895147E-2,-2.1672893E-2,-1.5163444E-2,7.1636E-2],"split_indices":[0,20,0,20,0,0,23,0,0,0,0],"split_type":[0,0,0,0,0,0,0,0,0,0,0],"sum_hessian":[1.83612E1,1.7355957E1,1.0052426E0,1.0864305E1,6.4916534E0,7.0591335E0,3.8051708E0,1.0243275E0,6.0348063E0,1.4567456E0,2.3484251E0],"tree_param":{"num_deleted":"0","num_feature":"33","num_nodes":"11","size_leaf_vector":"1"}},{"base_weights":[1.3645619E-1,8.7159246E-2,-2.0947935E-2],"categories":[],"categories_nodes":[],"categories_segments":[],"categories_sizes":[],"default_left":[0,0,0],"id":55,"left_children":[1,-1,-1],"loss_changes":[7.018576E0,0E0,0E0],"parents":[2147483647,0,0],"right_children":[2,-1,-1],"split_conditions":[9.28571E-1,8.7159246E-2,-2.0947935E-2],"split_indices":[28,0,0],"split_type":[0,0,0],"sum_hessian":[6.0464435E0,1.0038717E0,5.042572E0],"tree_param":{"num_deleted":"0","num_feature":"33","num_nodes":"3","size_leaf_vector":"1"}},{"base_weights":[1.7775664E-3,3.1362525E-1,-7.4711066E-1,2.0674576E-1,4.7351193E-1,-8.3207375E-1,2.1033289E-2,2.3407309E-1,-3.583741E-2,4.921266E-1,-9.997899E-3,-8.860695E-1,1.8066782E-1,1.819704E-2,-4.949891E-4,1.7476095E-2,2.6436765E-2,-9.048815E-3,-4.4911414E-2,1.6088596E-2,-3.4280613E-3],"categories":[],"categories_nodes":[],"categories_segments":[],"categories_sizes":[],"default_left":[0,0,0,0,0,0,0,0,0,0,0,0,0,0,0,0,0,0,0,0,0],"id":56,"left_children":[1,3,5,7,9,11,-1,13,-1,15,-1,17,19,-1,-1,-1,-1,-1,-1,-1,-1],"loss_changes":[4.1419098E1,2.0417585E0,5.5233765E0,2.106434E0,7.17577E-1,2.8363495E0,0E0,2.3914952E0,0E0,6.76136E-2,0E0,2.3723221E-1,1.3839091E-1,0E0,0E0,0E0,0E0,0E0,0E0,0E0,0E0],"parents":[2147483647,0,0,1,1,2,2,3,3,4,4,5,5,7,7,9,9,11,11,12,12],"right_children":[2,4,6,8,10,12,-1,14,-1,16,-1,18,20,-1,-1,-1,-1,-1,-1,-1,-1],"split_conditions":[3.53359E-1,1.538E-3,1.521928E0,1.39233E-1,1.3740622E1,1.0515212E7,2.1033289E-2,1.237E-3,-3.583741E-2,6.336667E2,-9.997899E-3,8E0,4.591481E0,1.819704E-2,-4.949891E-4,1.7476095E-2,2.6436765E-2,-9.048815E-3,-4.4911414E-2,1.6088596E-2,-3.4280613E-3],"split_indices":[6,19,6,9,26,23,0,19,0,23,0,0,27,0,0,0,0,0,0,0,0],"split_type":[0,0,0,0,0,0,0,0,0,0,0,0,0,0,0,0,0,0,0,0,0],"sum_hessian":[1.7535072E2,1.2420939E2,5.114134E1,7.581943E1,4.838996E1,4.7940815E1,3.2005236E0,7.43654E1,1.454029E0,4.7350464E1,1.0394976E0,4.563291E1,2.307904E0,4.821085E1,2.6154549E1,1.1827065E1,3.5523396E1,1.0428392E0,4.4590073E1,1.287756E0,1.0201479E0],"tree_param":{"num_deleted":"0","num_feature":"33","num_nodes":"21","size_leaf_vector":"1"}},{"base_weights":[-3.45371E-2,-3.5221648E-1,6.5724957E-1,-1.4284047E-1,-4.4461086E-1,8.288171E-1,-2.481738E-2,-3.003627E-1,2.3896198E-1,-4.5640063E-1,9.8154275E-3,-2.7730307E-3,4.356982E-2,-1.7984843E-2,2.4636991E-2,3.0363072E-2,-1.2962674E-2,-1.6500201E-2,-2.5456712E-2],"categories":[],"categories_nodes":[],"categories_segments":[],"categories_sizes":[],"default_left":[0,0,0,0,0,0,0,0,0,0,0,0,0,0,0,0,0,0,0],"id":57,"left_children":[1,3,5,7,9,11,-1,13,15,17,-1,-1,-1,-1,-1,-1,-1,-1,-1],"loss_changes":[3.5214718E1,2.0594234E0,1.0395266E1,2.1811368E0,6.61355E-1,1.7158451E0,0E0,1.3664911E0,2.1392899E0,3.2922363E-1,0E0,0E0,0E0,0E0,0E0,0E0,0E0,0E0,0E0],"parents":[2147483647,0,0,1,1,2,2,3,3,4,4,5,5,7,7,8,8,9,9],"right_children":[2,4,6,8,10,12,-1,14,16,18,-1,-1,-1,-1,-1,-1,-1,-1,-1],"split_conditions":[3.53359E-1,1.199E-3,2.5E-1,1.174E-3,1.25E-1,1.2E1,-2.481738E-2,1.317602E0,1.225109E0,1.147E-3,9.8154275E-3,-2.7730307E-3,4.356982E-2,-1.7984843E-2,2.4636991E-2,3.0363072E-2,-1.2962674E-2,-1.6500201E-2,-2.5456712E-2],"split_indices":[6,19,8,19,10,0,0,26,26,20,0,0,0,0,0,0,0,0,0],"split_type":[0,0,0,0,0,0,0,0,0,0,0,0,0,0,0,0,0,0,0],"sum_hessian":[1.5818369E2,1.087396E2,4.9444088E1,3.4072803E1,7.46668E1,4.328771E1,6.156382E0,2.4272057E1,9.800745E0,7.360081E1,1.0659955E0,1.9747143E0,4.1312992E1,2.3091024E1,1.1810336E0,5.5092382E0,4.2915072E0,2.3803751E1,4.9797054E1],"tree_param":{"num_deleted":"0","num_feature":"33","num_nodes":"19","size_leaf_vector":"1"}},{"base_weights":[4.239068E-2,-1.4612722E-1,8.515693E-2,4.5908656E-2,-2.1801619E-2,-3.206317E-1,6.8312347E-1,1.20044695E-2,-2.171014E-2,-1.4984234E-2,6.0671072E-2],"categories":[],"categories_nodes":[],"categories_segments":[],"categories_sizes":[],"default_left":[0,0,0,0,0,0,0,0,0,0,0],"id":58,"left_children":[1,3,-1,5,-1,7,9,-1,-1,-1,-1],"loss_changes":[6.2163153E0,1.02425E0,0E0,2.9646914E0,0E0,6.2282586E-1,2.7674136E0,0E0,0E0,0E0,0E0],"parents":[2147483647,0,0,1,1,3,3,5,5,6,6],"right_children":[2,4,-1,6,-1,8,10,-1,-1,-1,-1],"split_conditions":[9.9E1,1.619E-3,8.515693E-2,1.2E-3,-2.1801619E-2,2.9E1,6.331667E2,1.20044695E-2,-2.171014E-2,-1.4984234E-2,6.0671072E-2],"split_indices":[0,20,0,20,0,0,23,0,0,0,0],"split_type":[0,0,0,0,0,0,0,0,0,0,0],"sum_hessian":[1.8060387E1,1.7038313E1,1.0220736E0,1.0755446E1,6.282867E0,7.1432886E0,3.6121578E0,1.0155133E0,6.127775E0,1.4183627E0,2.1937952E0],"tree_param":{"num_deleted":"0","num_feature":"33","num_nodes":"11","size_leaf_vector":"1"}},{"base_weights":[1.383276E-1,8.700104E-2,-2.0931372E-2],"categories":[],"categories_nodes":[],"categories_segments":[],"categories_sizes":[],"default_left":[0,0,0],"id":59,"left_children":[1,-1,-1],"loss_changes":[6.9952135E0,0E0,0E0],"parents":[2147483647,0,0],"right_children":[2,-1,-1],"split_conditions":[9.09091E-1,8.700104E-2,-2.0931372E-2],"split_indices":[28,0,0],"split_type":[0,0,0],"sum_hessian":[6.024993E0,1.006456E0,5.018537E0],"tree_param":{"num_deleted":"0","num_feature":"33","num_nodes":"3","size_leaf_vector":"1"}},{"base_weights":[-6.2776357E-3,3.0192024E-1,-7.211563E-1,1.7614806E-1,4.6076816E-1,-7.954218E-1,2.0559704E-2,2.2714826E-1,-5.358048E-1,4.7708577E-1,-6.44134E-3,1.7764216E-2,-8.4350216E-1,1.2931064E-2,-3.501457E-2,-4.88843E-2,1.6712053E-2,1.4631755E-2,2.6436914E-2,-4.339577E-2,1.0856489E-3],"categories":[],"categories_nodes":[],"categories_segments":[],"categories_sizes":[],"default_left":[0,0,0,0,0,0,0,0,0,0,0,0,0,0,0,0,0,0,0,0,0],"id":60,"left_children":[1,3,5,7,9,11,-1,13,15,17,-1,-1,19,-1,-1,-1,-1,-1,-1,-1,-1],"loss_changes":[3.913023E1,2.39849E0,4.8261013E0,2.6956396E0,5.83168E-1,3.0962982E0,0E0,2.1324713E0,2.2630231E0,3.5002232E-1,0E0,0E0,1.0499802E0,0E0,0E0,0E0,0E0,0E0,0E0,0E0,0E0],"parents":[2147483647,0,0,1,1,2,2,3,3,4,4,5,5,7,7,8,8,9,9,12,12],"right_children":[2,4,6,8,10,12,-1,14,16,18,-1,-1,20,-1,-1,-1,-1,-1,-1,-1,-1],"split_conditions":[3.53359E-1,1.47E-3,1.521928E0,1.182E-3,1.33333E-1,8E-1,2.0559704E-2,1.39233E-1,8.5364375E3,6.336667E2,-6.44134E-3,1.7764216E-2,1.0514874E7,1.2931064E-2,-3.501457E-2,-4.88843E-2,1.6712053E-2,1.4631755E-2,2.6436914E-2,-4.339577E-2,1.0856489E-3],"split_indices":[6,19,6,20,10,16,0,9,23,23,0,0,21,0,0,0,0,0,0,0,0],"split_type":[0,0,0,0,0,0,0,0,0,0,0,0,0,0,0,0,0,0,0,0,0],"sum_hessian":[1.7561484E2,1.2311518E2,5.249965E1,6.988821E1,5.3226974E1,4.9547604E1,2.952045E0,6.5851906E1,4.0363007E0,5.1979225E1,1.2477487E0,1.7309707E0,4.7816635E1,6.438802E1,1.4638863E0,2.5947528E0,1.4415476E0,1.2829752E1,3.9149475E1,4.650142E1,1.3152158E0],"tree_param":{"num_deleted":"0","num_feature":"33","num_nodes":"21","size_leaf_vector":"1"}},{"base_weights":[6.77581E-3,-2.9727596E-1,6.469757E-1,-1.5130018E-1,-4.6765354E-1,8.107227E-1,-2.4735672E-2,-2.3590362E-1,2.1705846E-1,-4.8604807E-1,8.120658E-3,7.267794E-4,4.196706E-2,-1.8339707E-2,-1.0108533E-3,3.4003876E-2,-9.675611E-3,-1.6621966E-2,-2.6151637E-2],"categories":[],"categories_nodes":[],"categories_segments":[],"categories_sizes":[],"default_left":[0,0,0,0,0,0,0,0,0,0,0,0,0,0,0,0,0,0,0],"id":61,"left_children":[1,3,5,7,9,11,-1,13,15,17,-1,-1,-1,-1,-1,-1,-1,-1,-1],"loss_changes":[3.140799E1,2.6504326E0,1.0113554E1,1.9336618E0,6.5852356E-1,1.0317326E0,0E0,1.3928888E0,2.3753705E0,1.0359001E-1,0E0,0E0,0E0,0E0,0E0,0E0,0E0,0E0,0E0],"parents":[2147483647,0,0,1,1,2,2,3,3,4,4,5,5,7,7,8,8,9,9],"right_children":[2,4,6,8,10,12,-1,14,16,18,-1,-1,-1,-1,-1,-1,-1,-1,-1],"split_conditions":[3.53359E-1,1.147E-3,2.5E-1,1.011364E0,1.2766E-1,1.2E1,-2.4735672E-2,1.074E-3,7.899146E3,6.336667E2,8.120658E-3,7.267794E-4,4.196706E-2,-1.8339707E-2,-1.0108533E-3,3.4003876E-2,-9.675611E-3,-1.6621966E-2,-2.6151637E-2],"split_indices":[6,20,8,25,13,0,0,20,22,23,0,0,0,0,0,0,0,0,0],"split_type":[0,0,0,0,0,0,0,0,0,0,0,0,0,0,0,0,0,0,0],"sum_hessian":[1.5936493E2,1.08412125E2,5.0952797E1,5.9404057E1,4.9008068E1,4.481508E1,6.1377215E0,4.8601093E1,1.0802963E1,4.7839977E1,1.1680909E0,1.607282E0,4.3207794E1,2.9810099E1,1.8790997E1,4.7686844E0,6.0342793E0,1.1221632E1,3.6618343E1],"tree_param":{"num_deleted":"0","num_feature":"33","num_nodes":"19","size_leaf_vector":"1"}},{"base_weights":[1.3670255E-1,-4.220576E-2,8.316334E-2,-2.1206683E-2,1.4145373E-1,7.1681134E-2,-1.2506945E-1,1.5203962E-2,-2.1775771E-2],"categories":[],"categories_nodes":[],"categories_segments":[],"categories_sizes":[],"default_left":[0,0,0,0,0,0,0,0,0],"id":62,"left_children":[1,3,-1,-1,5,-1,7,-1,-1],"loss_changes":[5.3546715E0,1.3432497E0,0E0,0E0,4.692115E0,0E0,1.702226E0,0E0,0E0],"parents":[2147483647,0,0,1,1,4,4,6,6],"right_children":[2,4,-1,-1,6,-1,8,-1,-1],"split_conditions":[1.04E2,1.243E-3,8.316334E-2,-2.1206683E-2,1.32E-3,7.1681134E-2,3.305E2,1.5203962E-2,-2.1775771E-2],"split_indices":[0,19,0,0,19,0,22,0,0],"split_type":[0,0,0,0,0,0,0,0,0],"sum_hessian":[1.8348888E1,1.7294394E1,1.0544937E0,5.1907196E0,1.2103675E1,1.3208576E0,1.0782817E1,4.534712E0,6.248105E0],"tree_param":{"num_deleted":"0","num_feature":"33","num_nodes":"9","size_leaf_vector":"1"}},{"base_weights":[1.543765E-1,-2.0813039E-2,8.723698E-2],"categories":[],"categories_nodes":[],"categories_segments":[],"categories_sizes":[],"default_left":[0,0,0],"id":63,"left_children":[1,-1,-1],"loss_changes":[6.9445E0,0E0,0E0],"parents":[2147483647,0,0],"right_children":[2,-1,-1],"split_conditions":[9.18155E-1,-2.0813039E-2,8.723698E-2],"split_indices":[24,0,0],"split_type":[0,0,0],"sum_hessian":[5.8518934E0,4.8499475E0,1.0019463E0],"tree_param":{"num_deleted":"0","num_feature":"33","num_nodes":"3","size_leaf_vector":"1"}},{"base_weights":[-1.1741178E-2,2.941285E-1,-7.1233E-1,1.6281223E-1,4.8746026E-1,-7.998288E-1,2.1065848E-2,2.1633756E-1,-3.4346658E-1,2.5360474E-2,-5.7638753E-3,-8.295931E-1,3.437568E-3,2.1994194E-2,4.989963E-3,-3.5155628E-2,1.8632328E-2,-4.863246E-3,-4.24154E-2],"categories":[],"categories_nodes":[],"categories_segments":[],"categories_sizes":[],"default_left":[0,0,0,0,0,0,0,0,0,0,0,0,0,0,0,0,0,0,0],"id":64,"left_children":[1,3,5,7,9,11,-1,13,15,-1,-1,17,-1,-1,-1,-1,-1,-1,-1],"loss_changes":[3.6150963E1,2.9026499E0,5.422077E0,2.0105104E0,6.180525E-1,1.2963238E0,0E0,1.655503E0,2.1210146E0,0E0,0E0,5.5376244E-1,0E0,0E0,0E0,0E0,0E0,0E0,0E0],"parents":[2147483647,0,0,1,1,2,2,3,3,4,4,5,5,7,7,8,8,11,11],"right_children":[2,4,6,8,10,12,-1,14,16,-1,-1,18,-1,-1,-1,-1,-1,-1,-1],"split_conditions":[3.53359E-1,1.538E-3,8.11278E-1,1.182E-3,5.598201E0,1.0515212E7,2.1065848E-2,1.199186E0,9.16793E-1,2.5360474E-2,-5.7638753E-3,8E0,3.437568E-3,2.1994194E-2,4.989963E-3,-3.5155628E-2,1.8632328E-2,-4.863246E-3,-4.24154E-2],"split_indices":[6,19,5,20,27,23,0,26,24,0,0,0,0,0,0,0,0,0,0],"split_type":[0,0,0,0,0,0,0,0,0,0,0,0,0,0,0,0,0,0,0],"sum_hessian":[1.6672427E2,1.16459465E2,5.0264805E1,7.045001E1,4.6009453E1,4.6936543E1,3.328263E0,6.423191E1,6.2181025E0,4.47032E1,1.3062497E0,4.542482E1,1.5117201E0,2.1059853E1,4.317206E1,4.151362E0,2.0667403E0,1.2863446E0,4.4138477E1],"tree_param":{"num_deleted":"0","num_feature":"33","num_nodes":"19","size_leaf_vector":"1"}},{"base_weights":[-1.3760285E-2,-2.805338E-1,6.992643E-1,-1.833886E-1,-4.6838433E-1,4.023221E-2,-2.2128759E-2,-2.6776296E-1,7.037187E-1,-2.4662202E-2,1.0450694E-2,-2.2163067E-2,-8.582204E-3,3.9338473E-2,1.17320595E-2],"categories":[],"categories_nodes":[],"categories_segments":[],"categories_sizes":[],"default_left":[0,0,0,0,0,0,0,0,0,0,0,0,0,0,0],"id":65,"left_children":[1,3,5,7,9,-1,-1,11,13,-1,-1,-1,-1,-1,-1],"loss_changes":[2.9115898E1,1.9461861E0,5.371565E0,5.8051834E0,7.314491E-1,0E0,0E0,1.092041E0,8.002901E-2,0E0,0E0,0E0,0E0,0E0,0E0],"parents":[2147483647,0,0,1,1,2,2,3,3,4,4,7,7,8,8],"right_children":[2,4,6,8,10,-1,-1,12,14,-1,-1,-1,-1,-1,-1],"split_conditions":[5.2632E-2,4.192696E0,2E1,4.001055E0,4.17075E3,4.023221E-2,-2.2128759E-2,1.174E-3,1.898E-3,-2.4662202E-2,1.0450694E-2,-2.2163067E-2,-8.582204E-3,3.9338473E-2,1.17320595E-2],"split_indices":[12,26,0,26,21,0,0,19,19,0,0,0,0,0,0],"split_type":[0,0,0,0,0,0,0,0,0,0,0,0,0,0,0],"sum_hessian":[1.5103622E2,1.1035441E2,4.0681824E1,7.404102E1,3.631338E1,3.7514896E1,3.1669285E0,6.824799E1,5.7930264E0,3.529013E1,1.023249E0,2.2873283E1,4.5374714E1,4.3462486E0,1.4467778E0],"tree_param":{"num_deleted":"0","num_feature":"33","num_nodes":"15","size_leaf_vector":"1"}},{"base_weights":[-5.1090084E-2,-1.9330184E-1,6.094986E-2,2.7352938E-2,-2.2223204E-2,-2.1951474E-2,9.8155105E-1,1.0398854E-1,-1.5596476E-2],"categories":[],"categories_nodes":[],"categories_segments":[],"categories_sizes":[],"default_left":[0,0,0,0,0,0,0,0,0],"id":66,"left_children":[1,3,-1,5,-1,-1,7,-1,-1],"loss_changes":[3.5874908E0,9.8488396E-1,0E0,5.0081525E0,0E0,0E0,5.884502E0,0E0,0E0],"parents":[2147483647,0,0,1,1,3,3,6,6],"right_children":[2,4,-1,6,-1,-1,8,-1,-1],"split_conditions":[8.8E1,1.538E-3,6.094986E-2,1.182E-3,-2.2223204E-2,-2.1951474E-2,9.16793E-1,1.0398854E-1,-1.5596476E-2],"split_indices":[0,19,0,20,0,0,24,0,0],"split_type":[0,0,0,0,0,0,0,0,0],"sum_hessian":[1.7557367E1,1.6551857E1,1.0055085E0,9.285402E0,7.2664557E0,6.599613E0,2.685789E0,1.123772E0,1.5620171E0],"tree_param":{"num_deleted":"0","num_feature":"33","num_nodes":"9","size_leaf_vector":"1"}},{"base_weights":[2.7948925E-3,6.2294304E-2,-2.0869775E-2],"categories":[],"categories_nodes":[],"categories_segments":[],"categories_sizes":[],"default_left":[0,0,0],"id":67,"left_children":[1,-1,-1],"loss_changes":[4.1382027E0,0E0,0E0],"parents":[2147483647,0,0],"right_children":[2,-1,-1],"split_conditions":[1.160311E0,6.2294304E-2,-2.0869775E-2],"split_indices":[26,0,0],"split_type":[0,0,0],"sum_hessian":[5.9269247E0,1.0008775E0,4.926047E0],"tree_param":{"num_deleted":"0","num_feature":"33","num_nodes":"3","size_leaf_vector":"1"}},{"base_weights":[-3.0020676E-3,3.0294642E-1,-6.8785685E-1,1.8178256E-1,4.5437604E-1,-7.640759E-1,2.0572316E-2,2.1976033E-1,-5.051114E-2,4.7148722E-1,-6.8721236E-3,-8.123208E-1,1.7896803E-1,1.2979047E-2,-2.4498357E-2,1.4177546E-2,2.6284501E-2,-6.180231E-2,-3.727842E-2,1.5996652E-2,-3.065153E-3],"categories":[],"categories_nodes":[],"categories_segments":[],"categories_sizes":[],"default_left":[0,0,0,0,0,0,0,0,0,0,0,0,0,0,0,0,0,0,0,0,0],"id":68,"left_children":[1,3,5,7,9,11,-1,13,-1,15,-1,17,19,-1,-1,-1,-1,-1,-1,-1,-1],"loss_changes":[3.5592342E1,2.0718193E0,4.7091923E0,3.250366E0,5.865841E-1,2.392973E0,0E0,1.9826231E0,0E0,3.633585E-1,0E0,4.1283226E-1,1.2880048E-1,0E0,0E0,0E0,0E0,0E0,0E0,0E0,0E0],"parents":[2147483647,0,0,1,1,2,2,3,3,4,4,5,5,7,7,9,9,11,11,12,12],"right_children":[2,4,6,8,10,12,-1,14,-1,16,-1,18,20,-1,-1,-1,-1,-1,-1,-1,-1],"split_conditions":[3.53359E-1,1.414E-3,1.521928E0,1.403E-3,1.33333E-1,1.0515212E7,2.0572316E-2,1.021898E0,-5.051114E-2,6.336667E2,-6.8721236E-3,8.125E-1,1.11111E-1,1.2979047E-2,-2.4498357E-2,1.4177546E-2,2.6284501E-2,-6.180231E-2,-3.727842E-2,1.5996652E-2,-3.065153E-3],"split_indices":[6,19,6,19,10,23,0,25,0,23,0,3,10,0,0,0,0,0,0,0,0],"split_type":[0,0,0,0,0,0,0,0,0,0,0,0,0,0,0,0,0,0,0,0,0],"sum_hessian":[1.6787277E2,1.1642107E2,5.1451702E1,6.589596E1,5.052511E1,4.8400826E1,3.0508752E0,6.465177E1,1.2441925E0,4.930294E1,1.2221677E0,4.6177082E1,2.223744E0,6.1817623E1,2.8341439E0,1.2431324E1,3.6871616E1,3.900563E0,4.227652E1,1.1925403E0,1.0312035E0],"tree_param":{"num_deleted":"0","num_feature":"33","num_nodes":"21","size_leaf_vector":"1"}},{"base_weights":[-8.728382E-3,-2.6639843E-1,6.7136556E-1,-1.6423003E-1,-4.663259E-1,3.9055627E-2,-2.2310065E-2,-2.377804E-1,6.9260156E-1,-4.9157822E-1,8.06694E-3,-2.5329938E-2,-8.760506E-3,3.9656732E-2,1.0861811E-2,-2.5863862E-2,-1.5485306E-2],"categories":[],"categories_nodes":[],"categories_segments":[],"categories_sizes":[],"default_left":[0,0,0,0,0,0,0,0,0,0,0,0,0,0,0,0,0],"id":69,"left_children":[1,3,5,7,9,-1,-1,11,13,15,-1,-1,-1,-1,-1,-1,-1],"loss_changes":[2.6596388E1,2.1712193E0,5.463747E0,4.851595E0,6.6058207E-1,0E0,0E0,1.0757995E0,1.2089014E-1,5.730629E-3,0E0,0E0,0E0,0E0,0E0,0E0,0E0],"parents":[2147483647,0,0,1,1,2,2,3,3,4,4,7,7,8,8,9,9],"right_children":[2,4,6,8,10,-1,-1,12,14,16,-1,-1,-1,-1,-1,-1,-1],"split_conditions":[5.2632E-2,4.192696E0,2E1,4.001055E0,5.598201E0,3.9055627E-2,-2.2310065E-2,2.3227058E3,1.788E-3,4.980731E0,8.06694E-3,-2.5329938E-2,-8.760506E-3,3.9656732E-2,1.0861811E-2,-2.5863862E-2,-1.5485306E-2],"split_indices":[12,26,0,26,27,0,0,23,19,27,0,0,0,0,0,0,0],"split_type":[0,0,0,0,0,0,0,0,0,0,0,0,0,0,0,0,0],"sum_hessian":[1.4975073E2,1.0904477E2,4.0705956E1,7.337142E1,3.5673347E1,3.7340153E1,3.3658042E0,6.8236496E1,5.1349273E0,3.4502068E1,1.171279E0,1.1543995E1,5.66925E1,3.6867566E0,1.4481708E0,2.8614574E1,5.887494E0],"tree_param":{"num_deleted":"0","num_feature":"33","num_nodes":"17","size_leaf_vector":"1"}},{"base_weights":[1.0341054E-1,-7.749937E-2,7.281372E-2,-2.9091582E-1,2.9236355E-1,-2.2160273E-2,2.2187341E-2,7.422188E-2,-2.0320475E-2,3.7112143E-2,-1.8462826E-2],"categories":[],"categories_nodes":[],"categories_segments":[],"categories_sizes":[],"default_left":[0,0,0,0,0,0,0,0,0,0,0],"id":70,"left_children":[1,3,-1,5,7,-1,9,-1,-1,-1,-1],"loss_changes":[4.695052E0,1.4635214E0,0E0,5.617536E-1,6.341288E0,0E0,1.6100914E0,0E0,0E0,0E0,0E0],"parents":[2147483647,0,0,1,1,3,3,4,4,6,6],"right_children":[2,4,-1,6,8,-1,10,-1,-1,-1,-1],"split_conditions":[1.03E2,8.382511E3,7.281372E-2,4.980426E0,8.427958E3,-2.2160273E-2,3.03E2,7.422188E-2,-2.0320475E-2,3.7112143E-2,-1.8462826E-2],"split_indices":[0,23,0,27,22,0,21,0,0,0,0],"split_type":[0,0,0,0,0,0,0,0,0,0,0],"sum_hessian":[1.7722198E1,1.6463371E1,1.2588277E0,1.0574928E1,5.8884425E0,6.83496E0,3.7399683E0,1.7605975E0,4.1278453E0,1.0015198E0,2.7384486E0],"tree_param":{"num_deleted":"0","num_feature":"33","num_nodes":"11","size_leaf_vector":"1"}},{"base_weights":[1.5676016E-1,-2.0792572E-2,8.721839E-2],"categories":[],"categories_nodes":[],"categories_segments":[],"categories_sizes":[],"default_left":[0,0,0],"id":71,"left_children":[1,-1,-1],"loss_changes":[6.9290414E0,0E0,0E0],"parents":[2147483647,0,0],"right_children":[2,-1,-1],"split_conditions":[1.222222E0,-2.0792572E-2,8.721839E-2],"split_indices":[25,0,0],"split_type":[0,0,0],"sum_hessian":[5.8240714E0,4.8227034E0,1.0013682E0],"tree_param":{"num_deleted":"0","num_feature":"33","num_nodes":"3","size_leaf_vector":"1"}},{"base_weights":[-1.4676655E-2,2.1649887E-1,-6.9228256E-1,9.034041E-2,4.7506693E-1,1.9958055E-2,-3.853652E-2,1.6911379E-1,-6.637496E-1,3.001943E-1,2.5949715E-2,9.936478E-3,-4.245032E-2,-3.74236E-2,-5.651455E-3,1.8980611E-2,-9.554027E-3],"categories":[],"categories_nodes":[],"categories_segments":[],"categories_sizes":[],"default_left":[0,0,0,0,0,0,0,0,0,0,0,0,0,0,0,0,0],"id":72,"left_children":[1,3,5,7,9,-1,-1,11,13,15,-1,-1,-1,-1,-1,-1,-1],"loss_changes":[2.5608654E1,3.934937E0,3.8678799E0,5.0539656E0,1.495676E-1,0E0,0E0,2.4639075E0,2.9199672E-1,4.7646552E-1,0E0,0E0,0E0,0E0,0E0,0E0,0E0],"parents":[2147483647,0,0,1,1,2,2,3,3,4,4,7,7,8,8,9,9],"right_children":[2,4,6,8,10,-1,-1,12,14,16,-1,-1,-1,-1,-1,-1,-1],"split_conditions":[5.2632E-2,4.546564E0,1.39233E-1,4.001055E0,6.336667E2,1.9958055E-2,-3.853652E-2,4E0,3.0291666E2,4.980721E0,2.5949715E-2,9.936478E-3,-4.245032E-2,-3.74236E-2,-5.651455E-3,1.8980611E-2,-9.554027E-3],"split_indices":[12,26,9,26,23,0,0,2,21,27,0,0,0,0,0,0,0],"split_type":[0,0,0,0,0,0,0,0,0,0,0,0,0,0,0,0,0],"sum_hessian":[1.6152437E2,1.20943245E2,4.0581127E1,8.219077E1,3.8752472E1,2.447055E0,3.813407E1,7.511942E1,7.07135E0,9.352903E0,2.9399569E1,7.377812E1,1.3413012E0,5.8173375E0,1.2540128E0,8.24701E0,1.1058936E0],"tree_param":{"num_deleted":"0","num_feature":"33","num_nodes":"17","size_leaf_vector":"1"}},{"base_weights":[-2.3646345E-2,-2.7335405E-1,6.492066E-1,-1.6631675E-1,-4.908328E-1,3.7939183E-2,-2.2265075E-2,-2.3686583E-1,6.471597E-1,-2.585626E-2,7.964704E-3,-2.0000897E-2,-7.2886455E-3,4.081053E-2,1.1677398E-2],"categories":[],"categories_nodes":[],"categories_segments":[],"categories_sizes":[],"default_left":[0,0,0,0,0,0,0,0,0,0,0,0,0,0,0],"id":73,"left_children":[1,3,5,7,9,-1,-1,11,13,-1,-1,-1,-1,-1,-1],"loss_changes":[2.5130812E1,2.4562178E0,5.1945953E0,4.433155E0,6.8828297E-1,0E0,0E0,9.7245336E-1,2.4424171E-1,0E0,0E0,0E0,0E0,0E0,0E0],"parents":[2147483647,0,0,1,1,2,2,3,3,4,4,7,7,8,8],"right_children":[2,4,6,8,10,-1,-1,12,14,-1,-1,-1,-1,-1,-1],"split_conditions":[5.2632E-2,4.192696E0,2E1,4.001055E0,5.034E3,3.7939183E-2,-2.2265075E-2,1.174E-3,1.653E-3,-2.585626E-2,7.964704E-3,-2.0000897E-2,-7.2886455E-3,4.081053E-2,1.1677398E-2],"split_indices":[12,26,0,26,21,0,0,19,19,0,0,0,0,0,0],"split_type":[0,0,0,0,0,0,0,0,0,0,0,0,0,0,0],"sum_hessian":[1.475172E2,1.0802204E2,3.9495163E1,7.357508E1,3.4446957E1,3.617975E1,3.315415E0,6.835573E1,5.219356E0,3.3304634E1,1.142325E0,2.3275963E1,4.507976E1,3.0140738E0,2.2052822E0],"tree_param":{"num_deleted":"0","num_feature":"33","num_nodes":"15","size_leaf_vector":"1"}},{"base_weights":[1.6328542E-1,-1.6800739E-2,7.607716E-2,2.2441445E-1,-2.1504648E-2,-3.0842918E-1,9.9714667E-1,1.1311546E-2,-2.1423278E-2,-1.467934E-2,7.800843E-2],"categories":[],"categories_nodes":[],"categories_segments":[],"categories_sizes":[],"default_left":[0,0,0,0,0,0,0,0,0,0,0],"id":74,"left_children":[1,3,-1,5,-1,7,9,-1,-1,-1,-1],"loss_changes":[4.5529385E0,1.8243235E0,0E0,5.0842524E0,0E0,5.866227E-1,4.0705185E0,0E0,0E0,0E0,0E0],"parents":[2147483647,0,0,1,1,3,3,5,5,6,6],"right_children":[2,4,-1,6,-1,8,10,-1,-1,-1,-1],"split_conditions":[4E0,1.619E-3,7.607716E-2,1.182E-3,-2.1504648E-2,3.6E1,6.331667E2,1.1311546E-2,-2.1423278E-2,-1.467934E-2,7.800843E-2],"split_indices":[1,20,0,20,0,0,23,0,0,0,0],"split_type":[0,0,0,0,0,0,0,0,0,0,0],"sum_hessian":[1.7509043E1,1.633136E1,1.1776813E0,1.0601106E1,5.730255E0,6.6301155E0,3.97099E0,1.0534049E0,5.5767107E0,1.3514129E0,2.619577E0],"tree_param":{"num_deleted":"0","num_feature":"33","num_nodes":"11","size_leaf_vector":"1"}},{"base_weights":[1.7245013E-1,-2.063991E-2,8.506905E-2],"categories":[],"categories_nodes":[],"categories_segments":[],"categories_sizes":[],"default_left":[0,0,0],"id":75,"left_children":[1,-1,-1],"loss_changes":[6.664336E0,0E0,0E0],"parents":[2147483647,0,0],"right_children":[2,-1,-1],"split_conditions":[1E-1,-2.063991E-2,8.506905E-2],"split_indices":[11,0,0],"split_type":[0,0,0],"sum_hessian":[5.662921E0,4.623235E0,1.0396858E0],"tree_param":{"num_deleted":"0","num_feature":"33","num_nodes":"3","size_leaf_vector":"1"}},{"base_weights":[-5.907781E-4,2.731461E-1,-6.5171117E-1,1.5881638E-1,4.546265E-1,-7.348737E-1,2.0528762E-2,-1.5399563E-1,2.3159301E-1,4.754642E-1,-6.8386854E-3,-7.6437336E-1,3.7762944E-3,1.6725669E-2,-2.418224E-2,1.2989772E-2,-2.9587675E-2,1.546285E-2,2.5892457E-2,-2.3329533E-3,-3.9437395E-2],"categories":[],"categories_nodes":[],"categories_segments":[],"categories_sizes":[],"default_left":[0,0,0,0,0,0,0,0,0,0,0,0,0,0,0,0,0,0,0,0,0],"id":76,"left_children":[1,3,5,7,9,11,-1,13,15,17,-1,19,-1,-1,-1,-1,-1,-1,-1,-1,-1],"loss_changes":[2.8512197E1,2.264576E0,4.4844723E0,1.6436229E0,5.948353E-1,1.1160221E0,0E0,2.4053087E0,1.4935474E0,1.3398075E-1,0E0,7.1198845E-1,0E0,0E0,0E0,0E0,0E0,0E0,0E0,0E0,0E0],"parents":[2147483647,0,0,1,1,2,2,3,3,4,4,5,5,7,7,8,8,9,9,11,11],"right_children":[2,4,6,8,10,12,-1,14,16,18,-1,20,-1,-1,-1,-1,-1,-1,-1,-1,-1],"split_conditions":[3.53359E-1,1.538E-3,8.11278E-1,3.3E1,5.598201E0,1.0515212E7,2.0528762E-2,1.338507E0,1.1555583E4,6.336667E2,-6.8386854E-3,8E0,3.7762944E-3,1.6725669E-2,-2.418224E-2,1.2989772E-2,-2.9587675E-2,1.546285E-2,2.5892457E-2,-2.3329533E-3,-3.9437395E-2],"split_indices":[6,19,5,0,27,23,0,27,23,23,0,0,0,0,0,0,0,0,0,0,0],"split_type":[0,0,0,0,0,0,0,0,0,0,0,0,0,0,0,0,0,0,0,0,0],"sum_hessian":[1.5797037E2,1.1162338E2,4.6346977E1,6.9631676E1,4.1991707E1,4.3267902E1,3.0790741E0,1.2931761E1,5.669992E1,4.0751873E1,1.2398347E0,4.1803013E1,1.4648901E0,5.20447E0,7.72729E0,5.548387E1,1.2160468E0,9.966378E0,3.0785494E1,1.468774E0,4.033424E1],"tree_param":{"num_deleted":"0","num_feature":"33","num_nodes":"21","size_leaf_vector":"1"}},{"base_weights":[-4.6628416E-3,-3.0068937E-1,5.6397563E-1,-1.6846967E-1,-4.723073E-1,7.079235E-1,-2.485635E-2,-3.9860058E-1,-6.35173E-2,-4.9493727E-1,1.0649065E-2,-3.379608E-3,3.7296638E-2,-2.2531496E-2,1.08300345E-2,-8.795334E-3,9.101754E-3,-1.528323E-2,-2.5844833E-2],"categories":[],"categories_nodes":[],"categories_segments":[],"categories_sizes":[],"default_left":[0,0,0,0,0,0,0,0,0,0,0,0,0,0,0,0,0,0,0],"id":77,"left_children":[1,3,5,7,9,11,-1,13,15,17,-1,-1,-1,-1,-1,-1,-1,-1,-1],"loss_changes":[2.4852262E1,2.1233587E0,8.072845E0,1.3366593E0,7.519827E-1,1.3745956E0,0E0,6.5687656E-1,1.1336445E0,1.1000633E-2,0E0,0E0,0E0,0E0,0E0,0E0,0E0,0E0,0E0],"parents":[2147483647,0,0,1,1,2,2,3,3,4,4,5,5,7,7,8,8,9,9],"right_children":[2,4,6,8,10,12,-1,14,16,18,-1,-1,-1,-1,-1,-1,-1,-1,-1],"split_conditions":[3.53359E-1,1.147E-3,2.5E-1,1.196292E0,7.3529E-2,1.2E1,-2.485635E-2,1.03E2,1.097E-3,7E0,1.0649065E-2,-3.379608E-3,3.7296638E-2,-2.2531496E-2,1.08300345E-2,-8.795334E-3,9.101754E-3,-1.528323E-2,-2.5844833E-2],"split_indices":[6,20,8,26,13,0,0,0,20,0,0,0,0,0,0,0,0,0,0],"split_type":[0,0,0,0,0,0,0,0,0,0,0,0,0,0,0,0,0,0,0],"sum_hessian":[1.4563089E2,9.608262E1,4.9548275E1,5.539007E1,4.0692547E1,4.3922626E1,5.625648E0,1.6472534E1,3.8917538E1,3.9660618E1,1.0319257E0,2.0157766E0,4.190685E1,1.5434687E1,1.037848E0,2.6892475E1,1.2025062E1,5.674076E0,3.398654E1],"tree_param":{"num_deleted":"0","num_feature":"33","num_nodes":"19","size_leaf_vector":"1"}},{"base_weights":[1.0816042E-1,-7.239101E-2,7.170162E-2,-2.9037854E-1,3.1285563E-1,-2.1890057E-2,-3.2249354E-2,8.7043986E-2,-2.4269302E-1,3.5887282E-2,-1.9280044E-2,-1.988457E-2,1.2167301E-2],"categories":[],"categories_nodes":[],"categories_segments":[],"categories_sizes":[],"default_left":[0,0,0,0,0,0,0,0,0,0,0,0,0],"id":78,"left_children":[1,3,-1,5,7,-1,9,-1,11,-1,-1,-1,-1],"loss_changes":[4.5338435E0,1.5386112E0,0E0,4.2458588E-1,5.7467065E0,0E0,1.67344E0,0E0,5.268792E-1,0E0,0E0,0E0,0E0],"parents":[2147483647,0,0,1,1,3,3,4,4,6,6,8,8],"right_children":[2,4,-1,6,8,-1,10,-1,12,-1,-1,-1,-1],"split_conditions":[4E0,8.382511E3,7.170162E-2,3.0283334E2,8.5364375E3,-2.1890057E-2,9.16793E-1,8.7043986E-2,1.928256E0,3.5887282E-2,-1.9280044E-2,-1.988457E-2,1.2167301E-2],"split_indices":[1,23,0,21,23,0,24,0,25,0,0,0,0],"split_type":[0,0,0,0,0,0,0,0,0,0,0,0,0],"sum_hessian":[1.750565E1,1.6239613E1,1.2660378E0,1.0528456E1,5.7111564E0,6.2582135E0,4.2702417E0,1.001977E0,4.7091794E0,1.037301E0,3.232941E0,3.7083523E0,1.0008271E0],"tree_param":{"num_deleted":"0","num_feature":"33","num_nodes":"13","size_leaf_vector":"1"}},{"base_weights":[2.4231806E-2,-2.064723E-2,6.197526E-2],"categories":[],"categories_nodes":[],"categories_segments":[],"categories_sizes":[],"default_left":[0,0,0],"id":79,"left_children":[1,-1,-1],"loss_changes":[4.0395694E0,0E0,0E0],"parents":[2147483647,0,0],"right_children":[2,-1,-1],"split_conditions":[1.275E0,-2.064723E-2,6.197526E-2],"split_indices":[25,0,0],"split_type":[0,0,0],"sum_hessian":[5.639933E0,4.6333566E0,1.0065763E0],"tree_param":{"num_deleted":"0","num_feature":"33","num_nodes":"3","size_leaf_vector":"1"}},{"base_weights":[-2.3140263E-2,2.3795244E-1,-6.341414E-1,9.937928E-2,4.3619302E-1,-7.217595E-1,2.0724244E-2,1.5032718E-1,-5.692851E-1,4.5607325E-1,-1.0237252E-2,-3.7754778E-2,-1.1519149E-1,8.987963E-3,-3.1224264E-2,-5.10373E-2,1.6371813E-2,1.2709561E-2,2.5892591E-2,1.5252738E-2,-2.2071725E-2],"categories":[],"categories_nodes":[],"categories_segments":[],"categories_sizes":[],"default_left":[0,0,0,0,0,0,0,0,0,0,0,0,0,0,0,0,0,0,0,0,0],"id":80,"left_children":[1,3,5,7,9,11,-1,13,15,17,-1,-1,19,-1,-1,-1,-1,-1,-1,-1,-1],"loss_changes":[2.497672E1,2.9717689E0,4.60491E0,2.3304427E0,6.650057E-1,7.949295E-1,0E0,1.526611E0,2.30749E0,4.1491222E-1,0E0,0E0,6.079563E-1,0E0,0E0,0E0,0E0,0E0,0E0,0E0,0E0],"parents":[2147483647,0,0,1,1,2,2,3,3,4,4,5,5,7,7,8,8,9,9,12,12],"right_children":[2,4,6,8,10,12,-1,14,16,18,-1,-1,20,-1,-1,-1,-1,-1,-1,-1,-1],"split_conditions":[3.53359E-1,1.47E-3,8.11278E-1,1.182E-3,1.33333E-1,2.711953E1,2.0724244E-2,1.39233E-1,8.427958E3,6.336667E2,-1.0237252E-2,-3.7754778E-2,5.2632E-2,8.987963E-3,-3.1224264E-2,-5.10373E-2,1.6371813E-2,1.2709561E-2,2.5892591E-2,1.5252738E-2,-2.2071725E-2],"split_indices":[6,19,5,20,13,19,0,9,22,23,0,0,12,0,0,0,0,0,0,0,0],"split_type":[0,0,0,0,0,0,0,0,0,0,0,0,0,0,0,0,0,0,0,0,0],"sum_hessian":[1.5462054E2,1.0875707E2,4.5863464E1,6.489546E1,4.386161E1,4.2614513E1,3.2489524E0,6.1021225E1,3.8742397E0,4.2821815E1,1.0397946E0,4.0162388E1,2.4521255E0,5.9527985E1,1.4932389E0,2.484893E0,1.3893466E0,1.1232016E1,3.1589798E1,1.1000521E0,1.3520736E0],"tree_param":{"num_deleted":"0","num_feature":"33","num_nodes":"21","size_leaf_vector":"1"}},{"base_weights":[-1.490663E-2,-2.9547718E-1,5.488824E-1,-1.7679751E-1,-4.6538627E-1,7.004768E-1,-2.4776148E-2,-3.1363314E-1,-1.4973881E-2,-3.1666976E-1,-2.5538621E-2,1.1580406E-3,3.6310554E-2,-2.219988E-2,5.5374466E-3,3.737938E-2,-6.108047E-3,-1.9512072E-2,1.12278005E-2],"categories":[],"categories_nodes":[],"categories_segments":[],"categories_sizes":[],"default_left":[0,0,0,0,0,0,0,0,0,0,0,0,0,0,0,0,0,0,0],"id":81,"left_children":[1,3,5,7,9,11,-1,13,15,17,-1,-1,-1,-1,-1,-1,-1,-1,-1],"loss_changes":[2.2491468E1,1.831461E0,7.828989E0,1.2682942E0,9.7551346E-2,7.096844E-1,0E0,1.7697191E0,2.330064E0,5.500946E-1,0E0,0E0,0E0,0E0,0E0,0E0,0E0,0E0,0E0],"parents":[2147483647,0,0,1,1,2,2,3,3,4,4,5,5,7,7,8,8,9,9],"right_children":[2,4,6,8,10,12,-1,14,16,18,-1,-1,-1,-1,-1,-1,-1,-1,-1],"split_conditions":[3.53359E-1,3.7713E-2,2.5E-1,1.4768E-2,3.3066666E2,1.2E1,-2.4776148E-2,1.242181E0,8.88E-4,4.980688E0,-2.5538621E-2,1.1580406E-3,3.6310554E-2,-2.219988E-2,5.5374466E-3,3.737938E-2,-6.108047E-3,-1.9512072E-2,1.12278005E-2],"split_indices":[6,24,8,24,22,0,0,26,20,27,0,0,0,0,0,0,0,0,0],"split_type":[0,0,0,0,0,0,0,0,0,0,0,0,0,0,0,0,0,0,0],"sum_hessian":[1.4016145E2,9.390525E1,4.6256195E1,5.6488907E1,3.7416348E1,4.0680733E1,5.575463E0,3.0099285E1,2.638962E1,1.0614174E1,2.6802174E1,1.5586146E0,3.912212E1,2.2990648E1,7.108638E0,2.5159287E0,2.3873692E1,9.589579E0,1.0245948E0],"tree_param":{"num_deleted":"0","num_feature":"33","num_nodes":"19","size_leaf_vector":"1"}},{"base_weights":[1.2355587E-1,3.9199015E-1,-2.130274E-2,-2.076671E-2,9.043677E-1,1.2458726E0,-1.544033E-2,9.5353566E-2,-1.8597626E-3],"categories":[],"categories_nodes":[],"categories_segments":[],"categories_sizes":[],"default_left":[0,0,0,0,0,0,0,0,0],"id":82,"left_children":[1,3,-1,-1,5,7,-1,-1,-1],"loss_changes":[2.831754E0,5.610764E0,0E0,0E0,3.7227468E0,5.573185E0,0E0,0E0,0E0],"parents":[2147483647,0,0,1,1,4,4,5,5],"right_children":[2,4,-1,-1,6,8,-1,-1,-1],"split_conditions":[1.619E-3,1.243E-3,-2.130274E-2,-2.076671E-2,8.427958E3,9.16793E-1,-1.544033E-2,9.5353566E-2,-1.8597626E-3],"split_indices":[20,19,0,0,22,24,0,0,0],"split_type":[0,0,0,0,0,0,0,0,0],"sum_hessian":[1.7061861E1,1.165584E1,5.4060206E0,4.5989428E0,7.0568967E0,5.4857283E0,1.5711687E0,3.2992172E0,2.186511E0],"tree_param":{"num_deleted":"0","num_feature":"33","num_nodes":"9","size_leaf_vector":"1"}},{"base_weights":[1.8732864E-1,-2.0549523E-2,8.707527E-2],"categories":[],"categories_nodes":[],"categories_segments":[],"categories_sizes":[],"default_left":[0,0,0],"id":83,"left_children":[1,-1,-1],"loss_changes":[6.7729435E0,0E0,0E0],"parents":[2147483647,0,0],"right_children":[2,-1,-1],"split_conditions":[9.57809E-1,-2.0549523E-2,8.707527E-2],"split_indices":[24,0,0],"split_type":[0,0,0],"sum_hessian":[5.513865E0,4.5123E0,1.001565E0],"tree_param":{"num_deleted":"0","num_feature":"33","num_nodes":"3","size_leaf_vector":"1"}},{"base_weights":[1.8469112E-2,2.961176E-1,-6.156914E-1,1.8952309E-1,4.710855E-1,-6.895178E-1,1.9968571E-2,2.1664394E-1,-3.0821089E-2,4.9434215E-1,-1.0496744E-2,-7.2413737E-1,1.5520254E-2,1.2061706E-2,-3.3738375E-2,1.4774566E-2,2.5862558E-2,-8.232139E-3,-3.6716633E-2],"categories":[],"categories_nodes":[],"categories_segments":[],"categories_sizes":[],"default_left":[0,0,0,0,0,0,0,0,0,0,0,0,0,0,0,0,0,0,0],"id":84,"left_children":[1,3,5,7,9,11,-1,13,-1,15,-1,17,-1,-1,-1,-1,-1,-1,-1],"loss_changes":[2.7277437E1,1.919425E0,3.8112087E0,1.6330185E0,7.389078E-1,1.7600689E0,0E0,1.6337724E0,0E0,2.5159836E-2,0E0,1.2532997E-1,0E0,0E0,0E0,0E0,0E0,0E0,0E0],"parents":[2147483647,0,0,1,1,2,2,3,3,4,4,5,5,7,7,9,9,11,11],"right_children":[2,4,6,8,10,12,-1,14,-1,16,-1,18,-1,-1,-1,-1,-1,-1,-1],"split_conditions":[3.53359E-1,1.538E-3,1.5E0,1.39233E-1,1.2766E-1,3.3189978E7,1.9968571E-2,1.1532111E4,-3.0821089E-2,1.653E-3,-1.0496744E-2,8E0,1.5520254E-2,1.2061706E-2,-3.3738375E-2,1.4774566E-2,2.5862558E-2,-8.232139E-3,-3.6716633E-2],"split_indices":[6,19,6,9,13,23,0,22,0,19,0,0,0,0,0,0,0,0,0],"split_type":[0,0,0,0,0,0,0,0,0,0,0,0,0,0,0,0,0,0,0],"sum_hessian":[1.528851E2,1.0670188E2,4.6183216E1,6.7600975E1,3.9100903E1,4.335098E1,2.8322392E0,6.610758E1,1.4933951E0,3.8074776E1,1.0261285E0,4.2166874E1,1.1841058E0,6.504272E1,1.0648663E0,5.369116E0,3.270566E1,1.0615261E0,4.1105347E1],"tree_param":{"num_deleted":"0","num_feature":"33","num_nodes":"19","size_leaf_vector":"1"}},{"base_weights":[-1.2748741E-2,-2.6830107E-1,5.0918627E-1,-1.0762769E-1,-4.3278173E-1,6.893851E-1,-2.4951352E-2,-1.9413094E-1,2.8756094E-1,-4.5254254E-1,9.7962525E-3,3.5319526E-2,6.845688E-3,-1.1860739E-2,1.7815987E-2,7.169469E-2,-4.447626E-3,-1.4613995E-2,-2.4395352E-2],"categories":[],"categories_nodes":[],"categories_segments":[],"categories_sizes":[],"default_left":[0,0,0,0,0,0,0,0,0,0,0,0,0,0,0,0,0,0,0],"id":85,"left_children":[1,3,5,7,9,11,-1,13,15,17,-1,-1,-1,-1,-1,-1,-1,-1,-1],"loss_changes":[1.8315321E1,2.3886847E0,8.545465E0,1.6948171E0,6.502638E-1,2.6703453E-1,0E0,1.0315245E0,4.017656E0,1.07497215E-1,0E0,0E0,0E0,0E0,0E0,0E0,0E0,0E0,0E0],"parents":[2147483647,0,0,1,1,2,2,3,3,4,4,5,5,7,7,8,8,9,9],"right_children":[2,4,6,8,10,12,-1,14,16,18,-1,-1,-1,-1,-1,-1,-1,-1,-1],"split_conditions":[3.53359E-1,1.129E-3,6.50022E-1,1.097E-3,5.598201E0,5.52E2,-2.4951352E-2,3.09543E-1,1.343471E0,6.336667E2,9.7962525E-3,3.5319526E-2,6.845688E-3,-1.1860739E-2,1.7815987E-2,7.169469E-2,-4.447626E-3,-1.4613995E-2,-2.4395352E-2],"split_indices":[6,20,6,20,27,21,0,9,27,23,0,0,0,0,0,0,0,0,0],"split_type":[0,0,0,0,0,0,0,0,0,0,0,0,0,0,0,0,0,0,0],"sum_hessian":[1.3529085E2,9.114832E1,4.414253E1,4.6944653E1,4.4203667E1,3.771748E1,6.4250474E0,3.8931633E1,8.013021E0,4.3128307E1,1.0753607E0,3.6320904E1,1.3965795E0,3.6633385E1,2.2982469E0,1.2868208E0,6.7262006E0,9.471357E0,3.3656948E1],"tree_param":{"num_deleted":"0","num_feature":"33","num_nodes":"19","size_leaf_vector":"1"}},{"base_weights":[1.7812485E-1,6.1007426E-3,6.3262515E-2,2.2730292E-1,-2.1017322E-2,-2.9360688E-1,8.682524E-1,1.1866957E-2,-2.1107955E-2,-1.3906762E-2,6.290376E-2],"categories":[],"categories_nodes":[],"categories_segments":[],"categories_sizes":[],"default_left":[0,0,0,0,0,0,0,0,0,0,0],"id":86,"left_children":[1,3,-1,5,-1,7,9,-1,-1,-1,-1],"loss_changes":[3.355078E0,1.6548315E0,0E0,4.105603E0,0E0,5.854623E-1,2.7736263E0,0E0,0E0,0E0,0E0],"parents":[2147483647,0,0,1,1,3,3,5,5,6,6],"right_children":[2,4,-1,6,-1,8,10,-1,-1,-1,-1],"split_conditions":[4E0,1.619E-3,6.3262515E-2,1.182E-3,-2.1017322E-2,3.9E1,6.331667E2,1.1866957E-2,-2.1107955E-2,-1.3906762E-2,6.290376E-2],"split_indices":[1,20,0,20,0,0,23,0,0,0,0],"split_type":[0,0,0,0,0,0,0,0,0,0,0],"sum_hessian":[1.6981737E1,1.5529929E1,1.4518067E0,1.0533229E1,4.996701E0,6.109699E0,4.42353E0,1.0259745E0,5.083724E0,1.1952014E0,3.2283287E0],"tree_param":{"num_deleted":"0","num_feature":"33","num_nodes":"11","size_leaf_vector":"1"}},{"base_weights":[1.8025465E-1,-2.0600569E-2,8.700793E-2],"categories":[],"categories_nodes":[],"categories_segments":[],"categories_sizes":[],"default_left":[0,0,0],"id":87,"left_children":[1,-1,-1],"loss_changes":[6.793375E0,0E0,0E0],"parents":[2147483647,0,0],"right_children":[2,-1,-1],"split_conditions":[1.070549E0,-2.0600569E-2,8.700793E-2],"split_indices":[24,0,0],"split_type":[0,0,0],"sum_hessian":[5.5770683E0,4.575653E0,1.0014149E0],"tree_param":{"num_deleted":"0","num_feature":"33","num_nodes":"3","size_leaf_vector":"1"}},{"base_weights":[-5.9450185E-3,1.9542089E-1,-6.25371E-1,2.3021875E-1,-5.3290355E-1,1.968231E-2,-3.5382446E-2,1.4647129E-1,4.766765E-1,-5.6122817E-2,1.9091533E-2,9.74448E-3,-2.2431353E-2,2.5561977E-2,-8.953849E-3],"categories":[],"categories_nodes":[],"categories_segments":[],"categories_sizes":[],"default_left":[0,0,0,0,0,0,0,0,0,0,0,0,0,0,0],"id":88,"left_children":[1,3,5,7,9,-1,-1,11,13,-1,-1,-1,-1,-1,-1],"loss_changes":[1.8886345E1,3.0193071E0,3.392889E0,2.1960287E0,3.401823E0,0E0,0E0,2.4899058E0,7.125373E-1,0E0,0E0,0E0,0E0,0E0,0E0],"parents":[2147483647,0,0,1,1,2,2,3,3,4,4,7,7,8,8],"right_children":[2,4,6,8,10,-1,-1,12,14,-1,-1,-1,-1,-1,-1],"split_conditions":[5.2632E-2,4.2E1,1.39233E-1,3.0308334E2,1.688E-3,1.968231E-2,-3.5382446E-2,9.16835E-1,1.9608E-2,-5.6122817E-2,1.9091533E-2,9.74448E-3,-2.2431353E-2,2.5561977E-2,-8.953849E-3],"split_indices":[12,25,9,21,20,0,0,24,10,0,0,0,0,0,0],"split_type":[0,0,0,0,0,0,0,0,0,0,0,0,0,0,0],"sum_hessian":[1.4943651E2,1.1329163E2,3.6144867E1,1.08778336E2,4.513301E0,2.417661E0,3.3727207E1,8.2379654E1,2.6398678E1,2.6063836E0,1.9069176E0,7.680331E1,5.576351E0,2.5286283E1,1.1123947E0],"tree_param":{"num_deleted":"0","num_feature":"33","num_nodes":"15","size_leaf_vector":"1"}},{"base_weights":[-2.6859868E-2,-2.9911372E-1,5.0668114E-1,-1.8448712E-1,-4.4209757E-1,6.533499E-1,-2.4625039E-2,-2.3260455E-1,5.233403E-1,-4.647121E-1,1.0147702E-2,-3.7163736E-3,3.464988E-2,-2.2761783E-2,-5.2287485E-3,7.898293E-3,3.1568926E-2,-1.4666502E-2,-2.5520056E-2],"categories":[],"categories_nodes":[],"categories_segments":[],"categories_sizes":[],"default_left":[0,0,0,0,0,0,0,0,0,0,0,0,0,0,0,0,0,0,0],"id":89,"left_children":[1,3,5,7,9,11,-1,13,15,17,-1,-1,-1,-1,-1,-1,-1,-1,-1],"loss_changes":[2.0149445E1,1.4227705E0,7.19287E0,1.9152807E0,6.796341E-1,1.2434635E0,0E0,1.3775823E0,4.4725776E-2,1.5620995E-1,0E0,0E0,0E0,0E0,0E0,0E0,0E0,0E0,0E0],"parents":[2147483647,0,0,1,1,2,2,3,3,4,4,5,5,7,7,8,8,9,9],"right_children":[2,4,6,8,10,12,-1,14,16,18,-1,-1,-1,-1,-1,-1,-1,-1,-1],"split_conditions":[3.53359E-1,1.147E-3,2.5E-1,1.021583E0,7.3529E-2,1.2E1,-2.4625039E-2,1.199186E0,3E0,6.336667E2,1.0147702E-2,-3.7163736E-3,3.464988E-2,-2.2761783E-2,-5.2287485E-3,7.898293E-3,3.1568926E-2,-1.4666502E-2,-2.5520056E-2],"split_indices":[6,20,8,25,13,0,0,26,1,23,0,0,0,0,0,0,0,0,0],"split_type":[0,0,0,0,0,0,0,0,0,0,0,0,0,0,0,0,0,0,0],"sum_hessian":[1.3667096E2,9.078488E1,4.5886078E1,5.166034E1,3.9124542E1,4.031448E1,5.571599E0,4.90007E1,2.6596384E0,3.8069458E1,1.0550846E0,2.037854E0,3.8276623E1,1.6957514E1,3.2043186E1,1.1688465E0,1.4907919E0,9.574628E0,2.8494827E1],"tree_param":{"num_deleted":"0","num_feature":"33","num_nodes":"19","size_leaf_vector":"1"}},{"base_weights":[6.391204E-2,-1.15151465E-1,6.1413508E-2,1.23882964E-1,-2.1802818E-2,-2.9126975E-1,7.8515244E-1,1.209621E-2,-2.104091E-2,7.4765556E-2,-1.5300433E-2],"categories":[],"categories_nodes":[],"categories_segments":[],"categories_sizes":[],"default_left":[0,0,0,0,0,0,0,0,0,0,0],"id":90,"left_children":[1,3,-1,5,-1,7,9,-1,-1,-1,-1],"loss_changes":[3.8994389E0,1.3224767E0,0E0,3.0442014E0,0E0,5.87385E-1,3.7323272E0,0E0,0E0,0E0,0E0],"parents":[2147483647,0,0,1,1,3,3,5,5,6,6],"right_children":[2,4,-1,6,-1,8,10,-1,-1,-1,-1],"split_conditions":[4E0,1.538E-3,6.1413508E-2,1.2E-3,-2.1802818E-2,3.3E1,9.16793E-1,1.209621E-2,-2.104091E-2,7.4765556E-2,-1.5300433E-2],"split_indices":[1,19,0,20,0,0,24,0,0,0,0],"split_type":[0,0,0,0,0,0,0,0,0,0,0],"sum_hessian":[1.7024504E1,1.5536319E1,1.4881858E0,9.255829E0,6.2804894E0,